1,0,0.8086573,0.60157037,-1.8890549,-0.5155643,0.24015929,-0.94303375,-0.027689133,2.3234172,-0.19445525,1.4732383,-1.4243342,-1.1955909,1.1678907,0.31836644,0.2094967,-0.19915229,-0.45488104,-1.1456268,-0.3123111,0.035176244,-0.47954726,-0.2789815,1.0591563,-0.65440184,0.63828653,0.4106691,-0.48168314,-0.6823006,1.5137632,0.6740054,-0.08631943,1.0504959,0.32922214,-1.996824,1.4108773,-0.3682497,0.08375522,-2.3701408,-0.8823792,-0.17286228,0.474792,-0.2226506,0.0888784,0.5203308,-0.3399022,1.0799634,0.5185542,-0.52455163,-1.681272,-1.4805884,-0.73296213,-0.64209133,-1.0844703,-1.2602886,0.8297775,-0.53939205,0.6037333,0.76695603,1.2716017,-1.0174435,0.116242915,0.56317896,-0.71245664,0.43058798,0.4570925,0.2566142,-0.15204583,-0.43162227,-0.61028445,0.43432334,0.78018594,0.39519536,-0.53214425,0.53455967,-0.5821579,1.7977297,-1.1082456,1.3482487,-0.3387573,0.289998,0.31380934,1.0243338,-0.07562731,0.07601697,-1.5746975,-0.9703571,-1.6199161,0.40437105,-0.4012534,-0.8000914,-0.91221607,0.2558763,-0.4186451,-0.21757735,-0.30161247,1.10357,-0.33208233,-1.2466764,0.7167133,0.05555688,1.00495,-0.09903087,0.18225533,0.9767757,0.09571662,-0.19563451,-0.12209531,0.84862334,-0.4086019,1.2880111,0.45682782,0.013703427,0.9850775,-2.1496427,-0.75127256,0.71938634,-0.94186276,0.04998917,0.2550407,1.3188798,-1.1469893,0.43680048,0.47009173,-1.9284366,0.903141,-0.19101222,-1.1624037,0.8387188,-1.1365737,1.9543763,0.044833504,1.016236,-0.15202881,-0.09039983,1.656538,1.3636509,-1.0203811,1.8741157,-1.1962092,1.3444983,0.36883208,-0.020289514,0.53340447,1.0911714,0.61785334,-0.33333126,-0.5622493,-0.12122457,-0.6078931,0.32700926,-1.2056509,0.3950087,-0.20248365,-0.35638517,-0.6082087,-0.48623878,-0.5518962,-0.5299669,-1.7804941,0.98444164,0.36077863,-0.4189769,-0.050556794,1.6772594,0.79585737,0.76952064,1.1256053,0.17029443,-0.53364897,-0.94493616,-0.2829379,1.9591951,-0.10204382,-0.47074544,-0.44363898,0.25690886,-0.6394977,0.324938,-1.1771351,1.4695292,0.16906838,0.3249362,-1.0823638,1.4320368,1.0777432,-0.76650846,0.19856898,1.2755879,-0.56197065,-2.1507382,0.5847883,-1.1327701,1.0708574,0.4347183,-0.15811063,-2.1448708,1.0606569,0.16430524,0.70621157,0.063609764,0.11092687,0.3404473,1.2840854,-1.0791223,0.16579178,-0.07811621,-0.9653029,0.20361471,1.2823713,-0.18185414,-2.6166255,-1.0393794,1.5841608,0.52129847,1.504073,1.8664775,1.4104172,-0.2687594,-0.26304093,0.65412056,0.561895,1.1178195,-0.3340457,-0.24082915,-0.7341157,-0.40252122,-1.9069886,-1.5700691,-0.42642534,0.7066368,2.6522949,-0.1593498,0.18786155,-2.0802426,0.063530184,-0.35563973,-0.3926521,0.25295445,0.39766484,0.39037767,0.2431359,-0.31076938,-0.1269626,-0.7125038,-0.15150762,-0.20227589,-0.38268313,-1.2341701,-1.5542855,-1.9154074,0.585705,-1.7880878,-0.9448548,-1.2781785,-0.71531856,1.5961478,0.89548016,-0.48098385,-0.6935495,0.5148283,0.5828771,0.92741144,0.940985,-0.9655721,-0.81345075,0.14652196,0.49371475,0.90180737,0.64306945,-0.12834737,1.218308,0.90014005,0.9585553,1.1761504,0.047913406,0.94846094,0.17043115,-0.81292385,-0.31986,0.2663945,-0.76802796,-1.9490033,0.3128325,-0.07893018,-0.3587396,-1.8597412,0.5521094,-1.5156426,0.69796306,-0.5063561,0.38469285,0.69257605,-1.950203,0.5660153,-0.6944588,-2.4343598,-0.58510536,-0.7375115,0.42337522,0.95668,-0.50040865,0.8321909,0.27511063,-0.16166444,-0.5932519,-0.61879915,-0.32738927,0.962511,-0.6759297,0.6848057,0.7483468,1.394247,-1.1394104,2.4896915,-1.8979809,2.1987667,-1.7880458,-0.12524787,1.2570682,0.6064896,0.26683572,-0.3258995,-0.80569404,-2.0380692,-0.3319949,-0.6271104,0.18500535,-0.090732165,0.18273403,-1.0394897,-0.09068369,-0.13036081,-1.1308424,-0.9809845,1.1435047,0.8718422,-0.37014818,-0.30591676,2.0231345,0.55415094,0.7759457,-0.28740507,-0.45257786,0.49288145,0.1785422,0.20418914,0.09772935,-1.1966435,1.4524729,0.73915476,0.3796853,-0.024111426,0.74900264,-2.7592082,-1.2766839,0.31831464,1.3129863,0.29401895,1.3742071,-1.0898652,-0.8946279,0.506594,-0.56772035,-2.1312995,-0.45899117,0.2266744,1.8639239,-0.6438109,1.7236873,0.0795395,1.2246854,0.5457766,0.29688722,-0.10662215,-0.41396227,-0.5938022,1.4942806,-1.4818659,-0.4579953,2.6061857,0.63072926,1.7504904,1.2455746,0.12601864,0.4797515,1.1336788,1.4848961,0.55237746,0.2339088,0.7213746,0.5989469,-0.6015291,2.0914154,-0.42895433,0.60214585,-0.44992015,-0.18739335,-0.304794,0.7202122,0.11098945,-0.0562319,1.037281,-1.8327264,0.6657899,0.37810698,0.0048193894,1.3188138,-0.7816444,-0.036206253,0.6053165,-1.0382624,-1.6965973,2.059918,-1.3713634,-1.7617592,-1.7998968,-0.2501693,-0.4516787,-0.06588045,0.22446801,0.40438002,0.4439597,1.2575357,0.2523799,1.0727869,-0.02871678,-1.6242108,0.7737142,0.0041235937,-0.13451342,-0.22531918,-0.13622934,1.0959331,-1.4844936,0.7210331,-1.8298324,1.0755904,0.50040793,1.7589036,1.3671852,1.9515781,1.01599,-0.12868261,0.41500223,-1.4101417,-1.2426313,-0.23087236,-0.503739,-0.17149936,-1.2011241,0.6189393,-0.17987873,-1.3450693,0.740388,-0.8650644,2.3997474,-0.24777938,0.4423613,-1.8723569,-0.047250923,1.1172254,1.5557829,-0.23124126,0.25198638,-0.39682093,-1.4790561,-2.2514474,3.0555432,-0.02953796,-0.38077736,-0.8509055,0.16220112,-0.47969833,1.9163048,0.28821394,-0.42554823,-0.25785378,-0.92924345,0.8481331,-1.1444687,1.7754956,0.47506756,-0.6267409,0.48656797,0.85319376,0.2496066,-1.8985138,0.46158215,0.46324196,0.023020782,1.1489836,0.91501415,-0.93830526,0.83171225,-1.2664896,-1.6477616,0.02515394,2.235033,2.1431174,0.4842571,-0.4244688,0.6257135,-0.2200409,-1.379068,0.87700164,-1.9729283,0.6242595,0.58085644,-0.32093552,-0.7496174,1.0033994,-1.3200331,-0.9294862,0.9720601,-1.4190925,2.1172874,-0.5680767,0.5435496,1.4888206,1.223839,0.42783326,-0.17441808,-0.8225996,-0.8176761,0.02759663,1.4077438,-0.48164818,1.6935939,-0.2825427,0.73598206,0.56054676,0.9027304,1.0809169,0.8549815,0.17659485,0.59245956,1.7214311,-0.8883898,0.23753992,0.45617065,-0.27000773,-1.1829196,-1.0813445,2.2871332,-0.33740738,-1.3760498,-0.93151295,-0.32620665,-1.3791556,1.6629022,-0.89125204,0.6765656,0.24385838,0.19137383,-0.8057713,0.4568492,0.821544,2.049442,1.7062055,0.7747763,0.7812894,0.6107004,-0.46039805,-1.0669014,-1.1513215,-1.3021805,-1.8074269,1.057498,-0.38585922,-0.6955793,-0.28583872,-1.5295526,0.22842114,-1.2934717,0.1546689,0.96333426,-1.1744431,-0.00891427,0.333957,-0.957318,0.8078757,0.12095143,0.67223144,-0.5462108,0.28759834,-1.0122778,0.86836755,1.7163132,0.3934005,-1.3353637,1.0783814,-2.0697384,0.41579744,1.9279784,0.7412983,1.6733733,-1.679733,-0.037641734,0.86485267,-0.86575687,-0.72344613,0.274123,1.4229873,0.75187737,-1.0188344,-1.8502128,2.048476,0.90027636,-0.2667307,0.37464282,0.9797604,-0.6457483,0.58143264,-1.728461,-0.6637862,-0.45610553,-0.70792055,0.2930517,1.9355818,0.84148026,0.51799154,-0.51631445,-2.3440368,2.3175466,-0.1086952,-0.5620129,-1.6563357,-1.4817553,-0.8855333,-1.371111,0.9652834,1.3422289,-2.991169,1.0295259,0.4519584,-0.69864595,0.12877914,-0.14123897,1.990352,-0.5673672,-0.3965614,1.8388782,0.06850816,0.77875215,-0.32464162,-0.252056,1.2586377,-0.042547077,1.2906585,0.96044713,1.9069437,0.15181372,0.9097806,-2.18132,0.25655666,-1.418781,0.2808329,0.32836595,-1.2003119,1.5212862,-1.3604721,1.5837556,0.02433709,0.003470783,-1.197969,1.7549819,0.31636837,2.0208697,-0.80562687,0.6316925,-0.17887098,2.2829027,0.040071305,0.9261036,0.46347737,-0.5849997,-0.47004566,-0.048479576,1.867859,-1.0849609,-0.7467686,-0.065466285,0.9023365,0.95429295,-1.2827578,-0.36273983,0.6654069,0.68185014,0.25948068,-1.8154557,0.547983,0.6027643,0.53075683,1.1558061,-0.25537068,0.20746766,0.3285647,0.5831775,0.27192372,1.6270344,-1.1485591,-2.017173,-0.7307079,-0.019721573,-0.7629151,-0.2596634,1.385579,-1.6391599,1.1042833,-0.71979696,-0.085140005,1.0303583,-0.8007385,-1.3590055,-0.31971106,0.16659848,0.52412564,0.3879115,2.1008894,-1.3931365,-0.47330284,-1.3496621,-0.21276593,-0.48527706,-0.30838576,0.72593254,-0.69822985,0.6241545,0.69414526,-0.43678153,0.8269234,-1.0730842,0.42386314,-0.25614196,1.0978769,0.32869342,0.55562645,0.3526969,-0.6705686,-0.66062266,-1.900485,0.20537786,0.300166,-0.42379296,-0.09363914,1.0175071,-0.46060523,-0.22997953,-1.030268,-0.5866409,-0.824071,-0.113845594,0.40997022,-1.195483,1.0438612,-0.2662904,2.4119065,0.6789686,0.2099957,-0.050878067,-0.5344942,-0.8649504,-0.5130627,-0.44646046,0.28572908,-0.5919252,-1.2899042,0.3460437,0.9689838,1.8200432,-1.4530121,-0.027676396,0.39573735,1.2044716,0.07891343,-1.1333417,-0.09570729,-0.041891817,0.25171077,1.7434846,-0.16856371,-1.3225684,-0.03876451,0.41515768
1,1,1.9580498,-0.7517645,0.6829062,0.04809966,-1.7009068,0.94499505,-0.058576573,0.4034892,-1.0960879,-1.0418764,1.5252455,-0.27754712,-0.736515,0.53836864,0.100127384,-0.28494182,1.8764063,1.1455446,-0.5040602,1.7584324,0.6834832,0.34897527,0.2355848,0.6975127,-0.25165838,1.0184119,0.0038306045,-2.010047,-1.9635122,-0.4090665,1.3994141,0.6029037,2.1610994,0.9023027,-1.444287,-0.40054452,-2.5611024,-1.6649635,-0.885945,-1.245725,0.88901997,-1.1249439,0.43103415,0.055735312,0.6369294,-1.3283081,0.24439083,-0.32585263,-1.754834,0.9381988,1.3565428,-0.67698336,-0.65328604,-0.72769505,-0.3048644,-0.38509163,0.99199694,0.5313847,0.33526665,1.6513389,-1.4763963,1.0019159,1.7561916,0.32768616,0.7275264,-0.75924724,-0.51534766,-1.2210275,-1.9835397,-0.72647154,0.10949498,0.9299755,1.0559088,-0.48952347,-0.0044990354,-0.72808194,-1.1790448,-0.43469295,-0.37800273,0.16207814,-0.98816806,-0.6217144,1.733994,0.8318337,-0.662236,0.35074955,0.18447709,1.2591605,0.9491555,1.2961048,0.2584766,-1.7346143,0.2858062,0.5588298,-0.8224704,-0.73862475,0.37315592,1.0307189,0.26536518,-0.64515245,-0.28738192,0.44845477,1.4870636,0.7930803,-0.59837043,-0.3106789,-0.94391817,-0.91955066,-1.5462382,-0.10986301,-0.7278692,-0.013192913,-0.16241099,0.5092671,-0.5753619,-1.6365527,-0.53471076,-1.5375539,-0.63182557,-0.89736277,-0.3657839,0.60060775,0.21921942,-0.97781825,-0.021636521,0.15935992,1.2957903,-0.53610045,-0.36962938,1.1363007,0.51836133,-0.47576594,-0.9192192,2.0064418,0.55904526,-0.94634056,0.3783136,-0.200646,-0.57812923,0.09340193,-0.028410846,-1.7323139,0.7409614,-1.2435721,-0.5414125,0.4815141,0.42816702,0.33798608,1.5039592,-0.5300151,0.721197,0.96037465,0.061168995,0.9111295,0.48449108,-0.2849593,-0.043255154,1.2011617,-0.7267666,-0.17982088,-0.4728027,0.105609454,0.14884797,0.31115448,0.94588995,0.4265371,-1.2153912,-1.2738032,0.47429606,-0.86095035,0.4670129,1.2217044,-1.1951829,-0.31353933,-0.5290712,0.90193117,1.010013,0.24376367,-0.14783728,0.0115915295,0.73376167,0.045954093,0.72906107,-1.0884038,0.6996341,-0.719932,-1.1952245,-0.6125086,-1.4249789,-0.06143537,0.07680283,0.18436347,-0.14506526,-0.7720225,1.2986356,2.0264928,-1.0237218,0.20635067,-0.4154625,-2.5238206,0.81840837,-0.7658936,0.568428,-0.2996836,-0.16413753,-0.79827553,-1.0009301,-0.29924652,1.890926,1.5187739,-0.3367365,-0.28753978,-0.28594652,0.77211565,-2.327121,-0.18054725,-0.34813216,-1.2268287,-1.2157812,-1.313147,1.7901175,-0.84106016,0.2827747,1.0940356,-0.23738557,1.2776948,-1.4105743,1.4283516,-1.4550102,-0.61755085,2.0225112,1.4078903,0.5965658,-1.011302,0.34702373,-1.1891042,0.01593785,-1.1372526,-2.1854236,1.0739834,0.8122812,0.601251,-0.370907,-2.2570686,0.38785848,-1.3207822,-0.22979982,1.0598228,-0.21094823,-1.3020242,-1.6077791,2.7565484,0.6920891,0.15581056,-0.5330082,1.9011992,-0.72493726,-1.5268854,0.28175235,0.5282968,1.0631633,-1.2955717,-0.13645631,0.24744795,1.0151592,2.4061399,-0.22823952,-0.12342782,0.8735941,0.7274687,1.007548,2.2858083,0.1424821,-1.3886584,-0.81724036,1.6430589,-0.3432529,1.3218982,1.0439458,-1.734241,-0.8808157,1.8220371,1.1983532,2.4909136,-6.0937763E-4,-0.11326173,-0.34323135,0.9084775,0.6187436,-0.18150188,1.2813113,1.0687612,-0.8355191,1.3981984,-0.3671481,0.34505066,0.63797253,1.1120156,0.11374698,-0.3025961,-0.49520627,1.083498,2.0608194,0.5473352,1.2431574,-0.5103535,0.8695944,1.5961645,0.41838622,1.0312915,0.59800917,-0.35148224,-0.06815084,0.045272745,-0.73123014,-0.34266844,0.73972434,-0.13988554,0.40042335,-1.2209088,0.50562704,0.6945513,0.9958561,1.6788348,0.9768426,-1.7698333,0.6744687,0.9939936,0.1600167,2.3214848,-0.949152,-0.6852542,1.5794612,-1.417804,-1.2416784,0.9612392,-0.48647434,-1.5785365,1.246571,-0.14190745,-0.8361305,0.4059031,1.4308951,1.234051,0.025632309,-0.6270076,-1.7299914,-1.0533364,-0.038521584,0.018406628,-0.83809114,-0.43974146,-0.6740695,-0.017326768,-1.1551474,-0.5381294,0.94347674,-0.89484894,-0.23184499,0.45583054,0.092222996,0.82885605,-1.2836751,0.5554792,-0.78720146,2.242811,1.8925098,-0.5305116,-2.7517316,0.7636027,-0.4064639,-0.32047582,0.6581383,0.4411344,0.34692943,0.17783278,-0.5171554,1.273086,0.47455665,-0.11574574,-0.3958142,-0.73499274,1.5065112,-0.48832598,-0.029415254,-0.866032,-0.7627072,0.05312878,1.8074332,1.3515323,1.3552334,0.13244392,1.8533462,-0.6280396,1.0234805,-0.67341954,0.05390674,2.241102,-1.3749702,0.09413978,0.07680386,1.3551631,0.69224143,1.5165129,0.79510987,0.47855687,1.350539,-0.3993873,2.115536,0.17819189,-0.34492174,-0.8927745,-0.18250251,-0.6832419,-0.19087519,-0.3335257,-0.25039285,0.69021785,0.4483923,-0.77979493,1.1715128,-0.24561787,0.9013935,2.6935182,-0.38271272,0.49354178,-2.1628506,0.968663,0.522415,-0.82287174,0.865807,0.4623546,0.370551,-1.8466929,0.002343922,-0.65185183,-0.59909236,0.28033003,-0.8581688,-1.724529,-1.4861891,0.55509603,1.2516507,-0.5156453,0.6089682,-0.799938,-0.2677322,-0.9713867,0.77875435,1.2401377,0.38581538,2.1347847,-0.403482,-0.18049031,-0.6422548,-0.010426811,-0.8373201,-0.845552,0.5999591,-0.5474533,-0.99399406,0.78855306,-1.8254571,-0.8912651,-0.22176039,0.4302245,-1.0516043,0.25113505,0.7083558,-1.024377,2.1664877,-0.08302295,0.41711956,-1.3495994,0.20641038,-0.12891349,0.47948414,1.024217,-2.4672337,1.1353619,-1.0110663,-0.80865437,3.0620031,-1.0403614,0.338914,0.15539002,-0.7058435,0.89636576,0.16899355,-0.65656924,-0.51386225,-1.3177986,-0.945983,-0.11967889,0.37249732,-1.0135411,1.2132078,-1.0416195,0.44104415,0.9134229,-0.9010828,0.19081797,1.0732901,0.3171826,0.2718769,-0.8467713,-0.34947127,2.6811256,-0.6347677,1.4153947,0.1873251,-1.3334036,-1.484563,0.3387048,0.9225028,0.3532449,0.43775332,-0.43256682,-0.0063109375,-0.38735247,1.6584421,-0.7856931,-1.5419874,-1.4583023,-1.2436799,0.434217,0.5481314,0.44805792,-0.25514776,-0.9358663,-0.6593711,0.9662059,-1.7613852,-1.0388043,-2.2663345,1.2951773,0.6551812,1.1243832,-0.114547126,-0.050113235,0.70841545,-1.5012107,-0.15067665,-0.36725426,0.016798792,-0.85655415,-2.457115,-0.09053739,0.5050767,-0.34178776,0.41665685,0.53995305,-1.7183914,0.7574597,0.7252465,0.3049622,0.5149812,-0.81007046,-1.1293856,0.76524276,-0.041008264,0.26838738,0.4108419,-0.8989288,0.42553094,0.23441747,0.4010026,0.63255674,-0.097093984,-0.9284766,0.46047238,0.45851874,0.60831213,0.25884825,-0.6860577,-0.30225658,-1.4118919,1.649366,0.88601786,-0.6099511,0.42828828,-0.34942874,0.30580655,-0.5137506,-0.5499198,-1.5559543,1.0581473,0.5216332,1.2511145,0.1343691,-0.26784518,0.8140367,0.27941498,-2.0086732,-1.0025178,-1.440444,-1.6211121,0.071036115,1.3898584,-1.7170246,0.037658684,0.09915059,2.663432,0.18473141,-0.10238098,-1.4535513,0.20566325,0.5203129,0.48186123,1.9390771,-0.36699054,1.2761166,1.057377,-2.3047614,-1.4141109,-0.093160026,-0.97785044,0.37341335,-0.13506907,0.71396023,0.95506126,-1.804562,-1.2454252,-0.16773438,1.0691373,-0.18006153,-0.9133589,-0.4851017,-0.61765087,-0.43793476,-0.66459763,0.9283844,0.3488133,-0.51279813,-1.7595302,-1.098401,-1.2814562,-1.4054682,1.0338916,1.6439668,-0.38020504,-1.249157,0.0041751633,0.09201441,-0.5147307,-0.19967432,-1.3838704,-2.3166504,0.43035877,-0.9869318,-1.1990402,-0.09818286,0.15057947,-1.2310113,-0.7854663,-0.4318974,-0.12361363,0.21008454,0.16828844,0.9145376,-0.64188325,-0.9367306,-1.1376095,1.1816111,-0.5963878,-0.5372999,-0.0069461376,1.1810881,-0.2576114,-1.3178195,-0.3537061,-1.0642645,-0.43954572,1.0320462,-1.2056723,-0.13431866,0.7416474,-2.0833707,-0.3389193,-0.54067516,-0.3595407,0.21708597,0.4934995,1.3637979,-1.7370542,1.1753277,0.7531047,1.0418926,0.28290477,0.28637412,-0.34079581,-0.39824483,-2.4439058,0.38370794,-1.2931412,1.0429907,-0.70866996,0.5099031,0.21109907,-1.4467434,0.21914198,-1.3179626,-0.8782488,0.44157985,1.6755744,0.47873497,-0.610289,-0.9227661,0.5338979,-0.24348927,0.32109743,-1.1271639,0.64012057,-0.38559532,-1.0036408,-0.23075926,-0.81484586,0.531217,-2.2447731,0.36882713,1.9366573,1.9006076,-1.2820816,0.7162478,0.39858446,-0.5564036,0.664645,-1.1328312,0.49721816,-0.036568817,1.1488795,0.9245444,2.3328898,-1.0730616,1.2674989,-0.3471307,-1.01191,0.007486199,-0.020779977,0.23565817,0.21551934,0.16741094,-1.6535039,-0.5906037,0.36835477,-1.5488245,-0.4696773,-0.15421526,0.6986103,-1.3583729,-0.5365994,0.30758893,-1.1196254,-0.47479087,1.8142642,-0.82598317,0.6716742,0.9437224,0.12694465,1.2178515,0.37847337,-1.2412913,-0.40372232,-1.6487093,2.875191,0.5640235,0.42352876,-0.27587134,0.96426874,-0.6017103,2.0736876,-1.57143,0.5377456,-1.3908367,-0.32909703,1.0611837,-1.9111912,0.10833753,2.141865,0.3028871,-1.0653816,-1.2430658,-1.2557646,0.7256224
1,2,-1.0220461,0.109875716,-0.69753647,-0.3280838,0.58018667,-0.7010474,0.8271145,-0.16799463,0.82073456,-0.67841667,-0.073304854,-0.22977273,-0.41512862,-0.06781347,0.9762516,-1.9903758,0.14904079,-0.53674394,-0.01845719,-1.2379411,-0.32378137,-1.73956,0.8104894,-0.2753593,-0.26012614,0.35591418,0.20444366,-0.21715643,0.7972174,0.78144723,1.4135774,-0.9541584,0.06384757,-0.17725012,0.92461306,-0.37279186,1.2365209,0.9494938,0.92051476,-1.7574576,-0.3285072,2.0956807,-0.20999795,1.1929218,0.021229066,-0.681402,0.59838927,2.1183233,-0.3232118,-0.5461645,1.9679683,-0.22288713,0.780122,0.5016289,1.1292831,-1.5012454,-0.8523078,0.9378976,-2.8094184,-0.57145715,1.2912077,0.70158434,-0.33937266,-0.60499746,0.28682274,1.5005975,-0.16574225,0.05144074,0.19058354,1.1319863,-1.0323479,-0.81487405,0.98511,0.33074823,0.15206562,-2.3721185,1.2746354,0.8233201,1.5790335,0.5126749,1.4526653,-1.4114536,-0.38882568,-0.43344855,-0.07552789,0.797695,-0.50363153,-0.6952165,0.058669645,-0.23110616,-0.90678954,-1.5680708,1.4013706,-0.3790735,0.18458025,0.3979324,-2.8768518,0.50740695,-1.2091268,1.5879964,-0.4666614,-1.2930307,-1.0173408,0.42072907,-0.173276,-0.06563372,-0.17099635,0.7773906,-0.60378265,-1.2940897,0.30048853,0.8622306,-0.23073518,-0.7667135,0.64878976,-0.6432187,-0.03492232,-1.5328943,-0.21605067,-3.2209473,-1.2577099,-1.0760185,-0.8337041,0.2172348,0.35234517,1.0373118,-0.42188954,-0.49856257,0.74333745,-1.2451583,-0.49442473,-1.0257231,0.34962946,-0.30228618,0.418443,-0.4320435,-0.4946184,-0.3839579,-0.7765754,1.6694832,-1.1238607,-0.10138301,-0.31259668,-0.19160101,-0.97811073,-0.30600688,-1.1926141,-0.39036924,0.5341891,1.3921908,0.1404015,1.7645744,-0.4458315,-0.031526487,-0.2926778,-0.06176391,0.4025434,-0.97455686,0.9659536,-0.16276169,0.76748616,-0.470453,-1.4198594,-0.22392721,0.2658073,0.3450808,0.26460484,-0.72983795,1.4933697,-0.25437197,-0.90363646,0.7010972,-1.9458137,1.501554,-1.1901942,0.4098113,0.5106826,0.19017188,-0.51129895,0.80392283,-2.0156434,-1.4857591,0.37393954,-1.692271,-0.6992887,-0.8043677,-1.3079997,0.011276676,-0.17083687,0.6163898,-0.41404873,1.0684285,-0.72061145,0.0792459,0.3429467,-2.4982662,-0.5285595,-0.58799976,-0.56247014,0.98147386,-1.1758296,1.5129497,0.81736743,-0.27858904,0.76236224,-0.11113818,-0.39859715,-0.86812735,-0.356629,-0.47512007,0.63672453,-0.30226952,-0.89354336,-0.6364545,1.1324474,-0.050239485,0.6168948,-1.394889,-0.710139,0.3867191,0.6568251,2.0498435,-1.5439126,0.9933433,0.07667322,-0.52115345,-0.8125623,0.823472,-0.06394061,-0.4686935,1.361223,-0.3120363,-3.1236026,1.5492947,1.2428715,-1.1930535,0.9902643,-0.88514245,1.1604269,-0.446418,-0.7701241,-0.17569646,0.3270064,0.12006175,1.3107375,1.4903134,-0.44085655,1.7374549,-0.637747,-0.49926433,0.27686578,0.46164188,-0.5163651,0.314658,-0.6749842,0.41643935,-0.3197479,-0.86163855,1.827005,0.65049636,-0.57870156,2.4715168,-1.178727,-0.5466194,-0.9283544,0.6272267,0.067902535,-0.30215356,0.2230404,-1.2125102,-0.3570674,-0.8736466,0.9683343,-0.8297518,-0.29917163,1.356845,-0.1585973,1.3515115,-0.36611277,0.35102162,-0.4830424,0.6598541,1.7384913,2.0462637,-0.8921105,-1.5192914,-0.86502945,0.19620267,0.061018243,-0.25106406,0.45780796,-1.2137349,-1.5503209,-1.1404368,2.0665824,0.8221106,0.41863224,1.0409114,0.52174765,0.65119755,0.8005547,0.2751862,2.0977392,-1.0223421,0.5368404,-1.0601138,-2.18386,-0.28396526,1.236456,0.33046162,1.6902574,0.2301494,-0.30092213,0.28743774,0.73971707,1.085478,-0.2005388,-0.75341696,0.34041086,-0.4186766,1.7327408,-1.1812068,-1.6077726,-0.5138868,-0.2313391,0.43439317,0.31807113,1.397947,-0.66157067,0.49851692,-2.5200973,-0.6295546,0.58500224,0.28761762,-1.4614087,-0.5976772,0.8389268,-0.4076826,-1.6138347,-1.4998739,0.35147575,0.4440062,1.4652457,-1.2817631,-1.7403908,1.1313218,2.1298418,-0.24947557,-0.7845791,-0.15693839,-0.9437208,-0.121669605,0.01630159,-1.5295098,0.69717646,1.4784249,-0.8072876,0.13448155,1.149791,0.9360241,-0.21369803,-2.3513148,-0.07667479,-0.70194215,0.96812767,-2.4080448,0.7063932,0.4308596,-1.2610577,-0.26500785,1.287111,-1.1969806,-0.7325619,1.8384652,0.18639728,0.026437089,-0.56909317,-0.15969291,0.46194482,-1.3997902,0.5803397,-0.7290177,-0.30564937,-1.2684025,0.85426295,-0.7644693,-0.5884467,0.0887746,0.4234353,1.5315984,1.9724326,-0.61701405,-0.059088305,-0.08808571,-0.14159396,-0.32587534,-1.894598,0.3261861,0.5485031,0.29067558,1.9657371,2.1522188,1.3439428,2.0055907,1.7965686,-0.9867067,-0.51722795,1.3343006,-1.9331796,-1.6683383,-0.2233546,-1.6703401,1.8566537,1.2201937,-0.30697,-0.49085683,2.582394,0.9180027,1.3954694,-0.7156547,0.9532494,-0.46322146,0.63294655,-0.85734636,1.5315285,-0.9555137,1.4311414,0.29968297,0.4665418,1.1403823,-2.0653884,-1.9638475,-1.0245291,-1.2029818,0.7607966,2.0064464,-0.6063217,0.1091165,-1.1092861,-0.7783727,-0.8426391,0.48309344,1.498077,0.5811247,-0.7740273,-1.0949788,0.41156295,-1.1430572,3.3115036,1.6969448,-0.028455889,-0.15046437,1.8809353,0.65924037,0.18861678,0.30433163,0.36896074,-1.4979857,0.7841888,-0.068780035,-1.3384509,0.09710757,-1.465585,-2.7608173,0.90730464,-0.9646737,1.4018852,-0.19622074,1.0517005,0.5552566,-1.4046643,2.0674896,0.51318496,-1.2466851,0.49513885,1.6951853,0.7627974,-1.8277981,-1.1966708,0.7733264,-2.037042,-0.90693825,1.6061001,-0.4165712,0.5835407,0.2275628,-2.142183,-0.5254405,0.9194046,0.22686787,1.0095863,-1.7451779,0.147769,0.32262573,-0.51936454,1.1167157,1.1648489,0.7175497,0.021774901,-0.24920477,-2.3763788,-0.073509514,1.6813251,0.22509527,0.28857672,-0.28990552,0.007269447,0.4945655,1.9514295,0.6970986,0.5885726,2.0312862,1.3986942,-0.11453272,-1.3589665,-0.51478374,1.237436,0.8965687,-1.0487798,1.4195051,-0.89201766,-0.29510918,-1.0347915,1.9984274,0.7560105,-0.099867985,0.13351724,-0.8181704,-0.5256761,-0.36809838,1.5476539,0.831984,-0.65063626,-1.5389928,1.0192485,1.2430475,0.68108684,-0.1763253,0.36355495,-0.53725207,-1.3785814,0.5307625,0.2570764,-0.0052366764,0.16926213,1.8549455,0.46856925,0.69430846,-0.32379967,-0.7348895,0.66711414,0.9987962,1.9918647,0.7026892,0.4902844,0.55658644,0.47319406,0.43560496,0.4582148,-0.9039255,0.9711728,-0.7954036,-0.7972835,-1.8596877,-0.22368412,-0.13983637,0.8445299,0.19450395,1.8325359,0.14745067,-0.9389352,0.38016486,-0.6578007,-0.8130819,0.35363868,-0.34230778,-0.29921457,0.4584198,-1.2391267,-0.8508375,1.7211584,0.34958413,0.8569346,0.47071877,0.6839865,0.8039407,-0.8150481,0.28759843,-0.25962946,0.9630888,2.023751,0.12687226,0.52360064,0.6325306,1.170893,-0.107423544,-1.4885097,-1.1421187,1.5101373,-1.8915011,-1.8904718,0.2828884,-0.06139311,-0.33115643,-0.4163406,-0.50590616,-1.1245384,-0.7091449,-0.11096975,-0.6239635,0.6631212,-0.6161166,-0.9938485,0.7671386,0.07241368,-2.0765288,0.6289847,1.9381201,-0.32247213,-0.70811,0.23272616,0.82187754,2.2449868,-1.3059448,1.8626342,-0.07830865,0.5422358,0.95722777,0.33499053,0.72442377,0.8703059,-1.1024808,-0.96411806,-0.2758432,-0.20689222,1.9505761,0.07733637,0.60257787,-0.22052307,0.3803204,0.087483704,2.314429,1.7283717,0.5146483,-2.8885725,-0.6868123,-0.007880963,-0.28156167,-1.2704695,-1.2843947,-0.9136465,0.22929168,1.3179471,-0.86611396,0.044944607,-1.1109502,0.5779802,-0.35644633,1.6297845,-0.1208897,1.3742975,0.5470894,-1.8857602,-1.0929176,-0.49963635,1.730286,-1.1809016,1.2126536,0.16319859,2.5750756,0.025888175,-1.4610031,-0.32359603,-1.1921208,0.22073697,0.002064173,0.28657568,-0.9660566,0.039616797,-1.0584981,1.7315091,-0.14470091,-0.756047,-0.34558052,-1.3435607,-0.2244513,-0.91922325,-0.75225353,-0.5540936,1.3905402,-1.2198564,-0.31013036,0.26253203,1.0454575,-0.20205814,0.23262632,2.2710655,0.69724965,-1.9514885,-0.1403712,1.7267287,0.17843786,0.08299546,0.07870295,-2.424879,-0.20711228,-1.0512838,-0.62427884,1.5494193,1.7425106,-0.9227236,-0.8672768,0.32319328,-0.2538852,0.257121,-0.098405115,0.36775374,1.8381197,1.8335917,0.49563333,1.2168113,-1.7512742,-0.82869786,0.3704429,-0.36344224,-1.5461508,1.0048094,-0.3330601,-1.524453,-0.47240174,0.71729326,0.28036556,0.90442556,2.1790473,-0.036616404,-0.19980438,0.71893907,-2.2551014,0.979571,1.7456785,-0.23469953,-0.04185515,-1.2002532,0.21338718,0.9509975,-0.09869946,-0.5846234,1.4556644,0.4671244,-1.313563,-0.6919475,1.5994483,0.07154616,-1.0728853,0.94345725,-0.08202946,-0.7282296,0.1638778,1.3481333,-1.148072,0.13380697,-1.2457422,-0.9740655,-0.8169354,-1.4810281,-0.64868,-1.2285284,0.6640411,-1.1715811,2.0297523,-1.5935677,-0.28085616,0.46811652,-0.8109409,1.2762393,0.88370395,-1.0632108,-1.1157551,-0.07548913,-0.36608344,0.7891449,0.08472813,0.30157313,1.321845
1,3,-0.478755,0.31588563,0.28566325,-0.38302884,2.0932803,1.4342462,-1.5127852,0.5038294,-0.28539547,-1.1088052,2.3123298,0.80483794,0.96349794,1.0489349,-0.3992534,0.47318846,-1.7610883,-0.21774137,-2.0225003,-0.6994302,0.15901227,0.5355749,-0.16227977,-0.94258225,1.0686867,-0.42197824,0.42769372,-1.4700803,-1.3653481,-1.657883,0.09450826,0.10910294,0.35323355,-1.059337,0.8447715,-1.3739223,1.3115819,1.7335538,0.45814386,0.9035978,0.15353663,0.33237073,-0.76958466,-0.5219029,1.6975383,-0.7544441,0.37856483,0.56324434,-0.57566655,-1.1249759,-0.328889,-1.3985153,0.018958032,-2.166768,-1.516051,2.007893,1.1532996,0.5620335,-1.117923,-0.087158866,0.7801022,-0.40537626,1.1381563,0.70562017,0.049107004,-1.2163591,-0.41892427,1.322885,-1.3451347,-0.6099845,-0.57545567,-0.231275,0.36393508,0.90405464,-0.32131195,-1.0580202,1.1819434,-0.18978667,1.3506544,-0.70154303,-0.33512336,0.8887651,0.31733334,1.179678,-0.42555988,-0.3883742,-0.6478944,-0.17563613,-1.1401091,-1.938039,-0.64378786,1.5738692,0.5692334,-0.6118519,1.0562296,1.4261019,-0.35285112,-0.9210183,0.22776064,-1.027965,-0.8953718,0.79718775,-0.31501445,0.5400154,-1.0231119,0.70177406,-0.51910704,-0.085703894,0.41079405,0.022093287,0.21183765,-0.5118166,-1.1561562,0.39534715,0.5625597,-1.0367153,-0.46825534,0.65136105,-0.6410259,-0.19325714,1.8552983,-1.0350333,-0.50973064,-0.18708426,0.47081256,-1.060534,-0.8290362,1.1424226,-0.7360491,2.246832,-1.4906311,-1.9408,-0.98816836,-0.8583441,0.028560886,-0.53566486,0.86014354,-0.44335088,0.670989,0.508605,1.0164725,-0.008413556,-0.26508024,-2.3334692,1.3337733,1.101646,2.7494812,1.6492891,0.8184016,-0.93132246,-0.8578647,-0.27407235,0.5754783,2.4840531,0.626979,-2.113122,0.3755565,1.18948,1.135751,-0.015036074,-1.5460773,-0.42305708,-0.6966596,-0.6677045,-1.7276794,-0.43565845,1.2752188,-2.5689275,0.48324478,1.457872,-0.7217212,-0.7800175,0.33247796,-1.0775065,-1.60844,2.1845703,-1.324734,-0.74092335,-0.62816185,0.46179467,1.0184027,0.26180083,-0.40503535,0.67818505,0.84263515,-0.9522361,-0.7487192,-0.28882998,-0.31890947,-0.9455223,-0.7819815,-1.0389754,0.07745367,-1.5131187,1.513913,0.7484026,0.40612665,0.51275027,-0.06724588,-2.125292,0.7009905,0.034842327,1.1988988,-0.162188,-1.0584102,-0.58164996,-0.86571836,-1.2048911,0.12689222,-0.2895461,-0.8616177,0.5320051,2.0584931,0.1093066,-0.4131853,0.9311548,0.8575302,-1.652178,-0.5377564,0.68033904,-1.031802,0.033570707,1.8960351,-1.6796787,0.28285885,-1.0207705,0.14697163,1.5255191,-0.45474735,-0.18169889,0.33669555,-0.5174307,0.32877344,0.26969904,-1.2193719,-0.5382332,-0.7256398,-0.28492528,-0.38286343,-1.0709666,0.3499814,2.0827284,0.3089088,-0.19425383,-0.16795807,1.7506436,-2.9009442,0.19289967,1.7754314,0.6050544,-0.3801885,-0.57165366,-0.7686233,0.24322914,0.067482546,0.040166445,0.11201784,0.5439147,-0.5980835,-0.00837276,0.7825313,-1.1774113,1.6596675,-0.6038214,0.99008185,-0.724294,-0.25082198,0.3064379,0.3538896,0.19350642,-2.4959052,-0.64508444,0.8822008,0.8380727,-1.5739912,-0.092251465,1.7594081,0.36373183,1.0972961,-0.76799047,0.082125254,-0.518093,-1.6572423,-0.21794151,-2.352726,-0.8981573,1.1325066,0.05571195,0.13447304,-1.1108807,0.22734343,-0.5909466,-0.57376945,-0.48131737,-1.5227028,1.9067851,0.34485927,0.1547931,-1.8288454,-0.9286985,0.93375725,0.39878678,0.05670702,0.54770076,-1.7328739,-0.45918563,-1.3937895,0.8082166,-2.0394897,-0.8245639,-0.13572583,0.22050224,0.41165465,0.36840698,0.47682822,-1.3351017,0.031900853,0.049171507,-1.7243301,1.4411349,0.32059145,1.6527226,-0.07601127,-1.1468085,-0.106915355,-0.5597952,-1.968133,-2.0954542,-1.0376054,-0.15564317,0.04747231,0.22873229,0.5070391,0.88100725,-0.45212898,-0.23875894,0.24429129,-0.051865224,0.055329118,0.11732124,-0.6529772,-0.07731866,-0.6743124,-1.0191504,0.7560132,-1.789994,-0.854151,-1.0908626,-1.6222671,-2.3846786,0.5210068,1.5246494,-0.64618737,-0.2134297,0.89970785,-0.76799196,1.3388833,-0.00910328,1.1831023,-0.91894144,0.7972815,1.126532,0.04527447,-0.02493797,1.1469401,0.43057317,-0.56393236,-1.6828423,-0.15870936,1.2665896,-1.2505686,0.047120005,0.9225879,-0.91405416,2.0278935,-0.1902686,1.4229457,-1.4138732,-2.3307703,1.1821306,-0.33885786,-1.1299134,-1.175044,-0.7762753,-1.1067928,-0.13530977,-1.0452553,0.3444799,1.0197386,-1.2938701,-0.1404611,0.43273705,-1.8546994,0.41447636,-0.23986572,-0.4212578,1.2957116,-0.462896,-0.7013819,-0.14925426,-0.6704922,0.26361433,0.9824656,1.3646238,0.8868178,-0.71095943,-1.4117594,1.0780387,-0.5609681,-0.8176986,-0.48172465,1.8768511,-1.4068878,1.1391217,-0.61271393,-0.6025811,-0.84078497,-0.2512394,0.5723631,0.8882071,-0.73189497,-0.48888358,0.6059462,-4.1499104,-1.2537575,-1.2562418,1.4287658,-0.3893444,-1.3561144,1.4377089,-0.6322125,0.51187474,0.048879866,-0.4415603,-0.42871442,-0.8229459,-0.12813348,0.6538497,-1.971412,0.99874306,0.24782869,-0.6538712,-1.121546,-0.96401536,0.56563735,1.1289097,0.27028608,-1.0385706,0.17700791,-0.58511704,0.5415001,-3.170008,0.76452315,-0.5398887,0.58347774,-0.75741285,-0.9429618,-1.8988646,0.6450324,-0.062304474,0.4752119,1.9961462,-1.189239,-0.2452724,-1.6361911,-1.749204,-0.9069509,-0.59747064,1.2570088,-1.1244763,-2.1070867,-0.6971981,0.8789382,1.7046084,0.37412745,1.7120683,-1.647651,-0.6916046,-0.6348205,0.51308566,0.9505001,0.08899881,0.37628126,0.91766953,0.6674907,-0.13639371,1.5649966,-1.322182,-0.8258691,-1.1976752,-1.3610823,-0.804275,1.2475781,-1.4112622,0.54488367,-0.028003924,2.2470007,0.51769185,-0.52474624,-0.016495034,-1.2635013,0.7749703,-1.5081391,-0.2329362,-0.397109,0.07850861,-0.47638476,0.33134133,0.5996238,-1.3447003,0.33418113,-0.17828596,0.53484815,0.13431887,1.237968,0.39643186,-0.53030753,0.1982352,0.9396189,1.0614378,-0.48867306,-1.2160003,0.6905728,-0.7348579,-1.1498191,0.8827569,0.32654902,-0.49204776,-0.093326,2.3324833,-1.2324127,-0.6905463,-1.4847956,-0.97557634,-0.71339095,0.71568257,-0.8052775,-0.34735236,0.8538577,-1.2864892,-2.2713592,0.09809366,-0.9174555,0.4140654,-0.8325189,-0.14554577,0.7986136,0.62224954,-0.9826145,0.29762802,-2.0408213,0.3694275,0.38046163,2.129155,-1.5658126,0.35868287,1.2535353,-0.50362945,-1.2967321,-0.05201397,0.021577414,-1.245121,-0.56303686,-0.4538257,-0.1497493,-1.6075292,0.19386396,-0.48096836,0.3629327,-0.29048774,-0.5162285,0.016196588,-0.76225007,1.1652669,1.2274553,-2.4408967,-0.35065567,1.0336912,-1.763157,-0.76872605,0.21976542,0.42323014,-0.7867066,0.19536416,2.692671,-0.10509307,0.24033198,0.57027036,0.6269716,-1.2188932,-0.34442443,-0.6389455,-2.0574486,0.20203298,0.3968782,0.85470617,-0.5321457,-0.7976871,0.6857864,0.51416963,-0.13623464,1.651228,-1.183272,-0.23367293,-1.5240912,0.25672856,0.30839097,0.45778245,-1.0655957,1.7273577,1.3548634,-0.87962556,-1.0872211,0.28076288,-0.7498724,-0.51580757,1.6206634,-1.1780164,-0.3163968,1.771946,-0.21500967,-0.1603266,-1.1140467,0.7272384,0.6754603,-0.5889688,-1.6803482,0.27857208,0.14793816,-0.057179555,0.3615326,0.7292211,-1.1198647,-0.42576256,-0.25605875,-0.13819438,0.5834969,-1.583366,1.2189696,-0.3067402,1.6320295,-0.43443605,0.36396652,-0.06435985,2.811901,-0.35015485,1.6505624,-1.529857,2.3607326,1.5922596,-0.03536191,-1.4291908,0.375858,0.7918226,-1.2747205,-0.31545857,0.078802735,0.21418467,1.2583355,-1.6544137,-1.7542188,-0.97618026,-0.4382789,0.43707106,2.0986989,-1.7384157,-0.30609316,0.1938408,-1.5005176,0.12640962,-0.85134155,-1.2247088,0.45727593,-0.35814142,-0.5304074,0.55646366,-1.0977381,2.4980402,0.20802054,0.7657251,-0.34569883,-0.9256789,1.2710508,0.6050999,0.1951536,1.34154,0.5320075,0.4582243,0.9246307,-0.36515045,-1.891194,-2.277064,-0.37835845,-0.6799212,2.045349,-1.2642378,0.4882448,0.5111446,1.013232,1.2004304,-0.60737395,0.005295478,0.72623307,0.23992568,0.47464347,-0.0023661973,0.081304654,0.6355305,1.559231,0.30498743,-1.9865355,-2.736798,-0.33289695,-0.15726657,0.58040714,0.38158023,1.0618923,-1.068754,0.13859965,-0.78490126,-0.8025031,1.0664259,0.028225083,-0.11779352,-1.1913242,-1.1853448,1.066736,1.0827659,-1.5451902,1.2763474,0.981344,-0.45860144,-1.4581043,-1.9531841,0.24870668,-0.021947255,0.68556607,-0.2427996,-0.025524601,0.46091124,-1.1772807,-0.43466228,-0.70808524,0.41380528,1.082088,-0.99721915,1.1516614,-0.30213192,-0.5102961,0.3052667,1.923122,-1.2535019,-1.2925608,-0.35448667,-0.22877017,0.81658345,-0.41740343,-0.61212677,1.6834675,-1.4522496,-0.37170172,1.0128257,-0.13525027,0.80489004,-1.2108889,-0.727967,1.8290654,-0.30147663,-1.4613895,0.56797755,-0.8398712,-1.4885951,0.47341114,-1.4846559,-0.019211788,-0.83827734,-1.0924087,2.154897,0.18938147,0.2508366,-1.2367933,-1.0604296,-0.65764856,1.2876493
1,4,-0.9776051,0.9385467,0.47448018,0.5288795,-0.9294613,-1.62983,1.2691258,-0.33482158,-1.7480563,0.19992542,-0.144005,0.04907694,-0.60310555,-1.0526271,-0.45345962,0.038321637,-0.5589912,-0.04489989,-0.66654456,0.1329169,1.2136551,1.9327439,-0.3396311,-1.0811073,-0.5647203,-0.58259755,1.3397394,0.75831157,0.23735248,-0.06496886,0.37362024,-0.2702668,0.70125747,1.2917618,0.14985861,0.42121717,0.38282388,0.2451562,-2.4466197,1.4155374,-1.6308384,-0.39882565,-0.6209216,1.4608704,-0.97038805,0.8082551,-1.1964686,-0.057847865,-0.5425994,0.393746,0.8202793,-2.0653868,-2.7729719,1.5677338,0.021148117,0.57971835,-0.48915464,-0.32241023,0.08030191,0.16310191,-0.3213683,-1.6426451,-1.3090131,-0.25085512,1.5975584,-0.2959105,1.0778153,-0.3718599,-0.17484944,-0.005873637,-0.054020863,-0.6662887,-0.9110267,-0.3188125,0.6255023,-2.0181234,-1.6326748,-0.40923887,-0.3247522,0.2862836,-0.47810742,0.22346666,2.1925194,1.168584,0.16870324,0.69426864,0.57605207,0.29542306,0.57878613,1.9352479,0.56332445,-0.09112211,-0.037647996,-0.34296337,0.8312748,0.022697661,-0.6071293,0.32788342,0.5229915,-0.29190505,-0.55927265,0.17760058,0.14356972,1.1345117,-0.80149513,0.43991488,-0.35736218,-0.17934678,1.2316064,0.71948284,0.49164775,-0.7777134,-0.20774843,-0.46528637,-0.57250184,0.31391293,0.3533019,0.047059786,0.50047714,-2.8555028,-0.96435773,0.14462271,-0.24824792,-1.0281389,-0.10938248,-1.1304722,0.074129604,-0.2805387,-1.126926,0.19639638,-0.72546667,0.041803252,-0.20655997,1.5110966,0.2313327,0.19517666,-0.88254243,0.4326966,-0.097471714,-0.9562119,0.5455487,-0.24181984,0.123077914,0.44273153,-0.63385606,-2.0855186,-1.4681312,0.43326357,-0.26739463,0.6858732,-1.903247,-2.0622177,-0.0124085145,-0.5215696,1.5040798,0.74027824,0.21979362,0.31033015,-1.4813168,-1.6986992,1.0007299,-1.6174731,2.4063509,0.5012224,-0.41363794,0.7344635,-0.18002887,0.049352102,0.8610309,0.42317143,0.89166373,0.6870228,-1.3097943,0.5221898,0.70156395,0.3671554,0.1750262,0.92031336,-0.93568814,-0.8380696,1.4388458,-0.06907896,-0.38401082,-0.3982531,-0.120776646,0.15480807,-0.05668958,1.5596597,0.83641636,-0.22798017,0.6218865,-0.96446466,-1.61154,1.2293336,-0.39955702,-0.81770736,-0.8276519,-0.525834,-0.259436,0.27098098,-0.8149328,-2.197501,0.79774064,-0.112105824,-3.473655,0.02442006,-1.0128032,0.7516528,0.7747328,-0.33044085,-1.47809,0.5905664,0.23945151,-0.1370534,-0.23501903,-1.8988353,1.4547259,-0.10325698,-1.6231807,1.0619179,-1.1078887,-0.74503374,0.14282285,0.13446738,-1.1919601,0.08930509,-0.053441487,2.4069989,-0.6121258,-0.012393496,0.24866116,1.7433249,-0.9115494,0.048925567,-1.5369557,-1.0025148,0.4456265,0.611035,0.85544825,-0.33822152,-1.2921923,-0.15793094,-0.20164017,0.53138846,-0.8324846,0.6297824,0.026890667,2.2265103,-2.8747602,-0.3568125,0.084585816,0.94195265,1.1134151,0.61334175,-0.5988268,0.968948,0.083986506,0.3906085,-1.1702211,0.52341163,2.4163566,2.6070676,-0.70671207,-0.50956035,-1.3912711,1.2934297,-0.48626748,0.6108944,1.3137524,-0.56738883,-0.6075167,-1.2643178,-0.82092977,2.2643306,-1.0983441,-1.0604858,0.721348,-0.41127786,-0.0561817,0.4176192,-0.8572842,-2.1168253,-0.23255882,-0.0757141,-0.7416673,0.14020951,-0.65278137,0.19241565,0.948669,0.88379675,0.17312211,-0.4818414,0.74024916,0.00903858,0.4147453,-0.81897897,-0.71250236,1.280924,-0.4711952,-1.8435591,0.69102263,-0.5505238,-1.2696536,-0.4267519,1.2173057,0.35889348,-2.1007206,-0.972186,0.36511192,-0.42609,2.25199,-1.5489831,-0.0934576,-1.2806836,1.1100817,1.3676298,1.0512255,1.8453581,0.3846141,-0.3629603,-0.494432,0.17569181,-0.5861568,-0.7134188,-0.2555714,-0.038396787,0.032021873,0.7664697,1.8121529,1.2495415,0.45448062,-0.05762076,0.0665134,-0.261357,1.0871925,0.34860435,-0.14988852,0.01630716,0.20620139,0.64094526,-0.23034632,-0.24145827,-0.13956477,-1.5209659,1.1708683,0.0994223,-2.250676,0.8823864,-0.7619668,-1.0454834,-0.05658062,2.1100872,-1.4023002,0.12921381,-0.56195,1.9688423,-0.09440716,0.122620985,-0.34561425,0.94060814,-1.5248115,-0.5316407,0.17612424,1.3364701,1.0045793,1.7916466,0.2841282,-0.5675951,0.72725606,-0.9936666,0.57818145,0.5116359,-0.38037094,-1.8344235,-0.93325305,-0.3555527,-0.30426767,1.1636285,1.2787803,0.7692517,1.0851687,0.8372281,1.4912418,-0.20554028,-0.6100504,1.7662526,1.874419,-0.5037946,0.7049398,0.945615,-0.07248346,-1.0604216,-0.7807726,0.19296412,-0.5748537,0.9453831,0.7289788,-0.77423596,0.03865153,0.095693305,-0.8802921,-0.6768019,1.4647146,-0.8241628,0.2619684,1.5185028,0.45328447,0.35894585,1.5058618,1.5623741,-0.6011718,1.3509219,0.5011883,0.5069513,-0.23635021,-0.48174822,0.10521893,2.3433778,-0.76802474,0.4953001,1.4935158,-0.031177083,0.3544353,0.06983016,-0.46231794,-0.9342972,0.04795555,-1.8246721,1.6166986,-1.3931925,-1.7968111,-0.4105819,-0.36769053,-0.17261273,-0.48224786,1.265565,0.6695167,1.1503137,0.17602879,-0.5574919,-0.42795336,-0.65480596,1.1888677,-0.16105808,-1.3340791,1.784213,-0.4715994,-0.5068428,0.09223655,-1.5738751,-1.0238512,1.2559273,-0.121503234,0.32096538,-1.0061202,0.38335994,-0.5040359,-2.2632213,0.54881287,-0.038428064,-1.605122,0.52153033,-0.80391353,0.26209688,0.07635347,-0.438669,-3.5414894,-0.3497447,-0.99015605,-0.7012069,2.1730118,-1.2160662,0.7765696,2.1948833,0.46457106,-0.61321706,1.04927,-0.17344624,-0.28122237,-0.8575618,-2.4208548,0.14556044,-0.42686558,-1.6779748,0.27435625,-0.82402074,-0.2761272,1.219652,-0.25977823,-0.9414927,1.1362758,-0.7215616,0.7336031,0.5132517,-0.23894094,-0.6568614,0.36278364,0.58814347,-1.0260262,1.3723176,1.3454822,1.0431871,0.8042397,-0.72728574,1.5505589,0.7041202,-0.31517398,-0.2693104,0.85327584,0.757819,-0.08379321,-0.41126516,-1.1221253,1.442764,-0.058751795,-1.8222308,-0.13669123,0.6109656,0.7766134,1.0686355,-0.8872571,-1.3145506,-1.4568353,-0.12972349,0.5828405,0.45541352,0.92498976,-0.45114872,1.01821,0.6643814,0.0338419,0.671686,-0.96112984,0.6840067,0.27664527,0.19126163,1.148538,-0.9131276,-0.5241999,1.2029126,0.83446753,0.25354603,-1.3014936,0.23797292,-0.7853292,0.28476998,-0.08415783,-1.2780796,0.2055431,0.08679062,0.0299446,-0.6120871,-0.14810012,0.76140857,-0.010424432,-0.0566401,0.8729996,2.4750729,-0.9613792,1.0096178,-0.83206725,-0.11971015,-0.19968224,0.0626537,0.30455366,-0.09669777,-0.78503966,0.56103426,-0.46516576,-2.2522378,0.6144966,-1.0015249,0.84126323,-1.6849749,-0.8383595,-0.13762967,-0.49458003,-0.57292104,0.0038889954,0.3002141,1.6354693,0.41973746,0.57597035,0.75855863,-2.6102695,-0.26579022,-0.3553657,-1.4852972,1.2248262,0.1938189,0.82011575,0.019232824,0.46661872,-0.59805405,-1.5860907,-0.19369514,0.7312681,-0.1537156,-2.7479155,-0.4008973,-0.7289646,0.87362987,-0.1065866,-0.8331997,0.08018184,-0.71860933,-0.7213333,2.438255,2.3198402,0.547583,-0.8157149,-0.8847337,1.26846,-1.6193206,0.9335391,0.056130644,0.6649584,-0.010929699,-0.5403562,-0.6477216,0.4357679,-1.8747828,0.60770744,-0.5579703,-1.4114234,0.36864248,-1.5856946,0.8194525,-0.15883501,1.0519907,0.8713446,0.27825722,-1.8520113,0.23122503,1.9199399,1.3601462,0.87103295,-1.899014,0.6831763,-2.058145,-1.1575688,-0.8473215,-1.3356268,-0.8328893,-0.79497707,1.2768035,1.5610578,-1.4092966,-0.15473647,1.0656377,0.7485322,0.4356165,-0.67416316,-1.3343871,-0.59014916,-0.44679454,-0.32587662,0.01811777,0.6408065,-0.9992514,0.42823756,-1.0882696,-1.2749532,0.726261,0.9257858,-0.7396425,-0.009043584,0.5877203,-0.72434634,0.66210234,-1.2223934,0.8372989,-2.3253717,1.0025457,-0.18187094,-0.43391266,-2.285808,0.9533476,0.95896834,1.2977352,0.09469477,-0.7956422,-0.41740814,2.042688,0.74011385,1.2799451,0.6385824,-1.2955523,-1.2392532,1.1720669,-0.22711262,1.2238001,-0.48929286,0.3904737,0.19112079,-0.04586114,1.369107,-0.25863707,-0.04065497,-0.6685116,0.13623528,-0.31927112,1.8949429,0.019283285,-0.26690218,0.9184762,-0.75777775,-0.08369027,0.15726928,-0.8197362,0.4480571,-0.7353827,0.014021597,1.1600099,-1.2132725,-1.1753191,-0.7714141,-0.6889022,1.4817795,-0.4289544,-1.1786417,0.21202397,0.09401404,-0.45950568,-0.9935939,-0.41707805,1.7253252,0.64793724,0.89121836,0.9657819,-0.08917492,-0.38515347,-1.2098494,0.9061236,-0.3283129,0.91184527,-0.052874904,1.3244871,0.51742256,0.21010886,-1.3929142,-0.76541674,-2.2265952,-0.5432842,0.86416334,0.005527621,0.0015629546,1.2319638,-0.45269144,-0.72771716,0.18793371,-0.4344771,1.1251228,-1.9370229,1.1417682,-1.161803,0.37432235,-0.031897563,-0.38714686,0.43767434,0.40251145,0.5663117,-2.543692,-0.5678172,-0.23875658,-2.6231406,-1.4009869,-0.45128405,-0.15814938,-1.135644,-0.1641192,-0.3929405,-0.26601845,-0.09475609,-0.6154575,-0.8862298,0.6533883,-0.17664477,0.12781402,0.78348106,-0.457371,-0.055672493,-0.11318126,-0.31689692
1,5,-0.4983899,0.055358436,2.247331,1.1563632,0.16209154,-2.2438087,0.45339993,-1.1103457,1.1746811,0.024958724,-0.1567385,-0.21462731,-0.38116828,-0.66207,1.145625,-1.1709145,-1.2769927,0.87989783,-1.3795596,2.2014303,-1.1417884,0.06603784,1.3983437,-0.9888211,0.52609974,-1.505767,0.6766697,0.8112842,0.053272884,0.60990137,0.39111245,0.7283826,0.41128674,-0.26105034,0.7463946,-1.5322993,-1.6830037,0.12167476,-0.24695113,-0.84045416,0.46840635,-0.18894519,-1.2293774,0.9579254,-0.09631749,0.18951069,-0.32989985,-0.55902606,0.10291862,1.0292279,1.1479944,-1.5818704,-1.4491987,0.22049868,0.59019935,0.85733694,-0.40023863,0.34174615,0.33524582,-1.1877178,-0.045179904,-0.5157055,1.3060744,-0.8553194,-1.3175408,-0.640913,-0.4262346,-1.0400282,-0.5671871,-0.36589733,0.41895568,1.1728468,1.6983293,1.376681,0.3041529,0.33802933,-1.2577821,0.52360374,-2.2284396,0.62384564,-2.2580092,1.224514,1.3498303,0.75092953,-0.34952873,-1.0069926,-0.6858905,0.25764504,0.14553672,0.50710493,-0.24786517,1.2864394,0.48664683,-0.6179272,-0.18097757,-1.0047921,-1.4953871,0.5297375,-0.3838235,0.86090964,1.2168298,-0.95205766,-0.81675315,-0.11214931,1.5497451,0.5315406,-0.56828296,-0.37376538,1.5424179,-1.733726,-0.022810606,0.12758248,-1.0016958,-0.37615925,1.0568724,-0.5160612,-0.492229,-0.42469963,-0.0045934333,1.7459891,-0.58354115,0.9105494,0.8825918,-0.7565643,-1.4280692,1.5622429,0.091986805,-0.26747945,-0.3299848,0.13464487,-1.3272104,1.0019833,-0.5156314,1.3454492,0.399997,1.2232761,0.30354655,-1.4105331,0.39850837,-1.8010525,-0.54066706,-1.1091245,-0.22116733,-0.47251678,1.1489947,-0.20915398,-1.4902304,-0.58010316,-0.35499033,0.31585866,-0.310821,-0.24116132,-0.36916968,0.7399331,-0.13654219,0.03222529,-0.056492385,-1.1767461,-0.587973,2.53707,-1.1448333,-0.9077011,-0.47544807,2.2550416,-0.5522258,-0.13356705,-1.0029476,-0.7574298,0.95013463,2.491088,-0.9291159,0.12207931,-0.4401619,1.0632354,1.9048672,0.051573906,-0.06572282,-0.71157414,-1.0458409,-0.25452593,-0.5781065,0.052206207,2.9724147,0.044008322,1.0418792,0.3982032,0.7324199,-0.22561452,1.6164069,-0.42447644,-0.8797302,-0.8213253,1.188326,-1.8616828,-0.62737983,-1.5515555,1.1168447,0.60934156,-0.36978295,-0.2573489,-1.1774759,0.47708422,-1.2747664,-2.0540512,-1.3439577,0.6794484,0.43677047,-0.4539105,0.08716744,0.27875328,0.16131529,-0.48457038,-0.45116994,0.336398,1.9001216,-0.6825211,2.0602124,-1.2961447,-0.9923399,-1.1634566,0.99821335,1.5989677,1.1805648,0.7196436,-1.4079922,2.2703655,-1.4041361,1.8860165,-0.96001655,-0.9529997,0.25786206,0.19047122,-0.89947635,0.7564056,0.16916862,-1.6936746,1.0033827,-0.2503549,-0.14078431,-1.6946057,1.7116027,-0.9000048,-0.21135345,0.592433,-0.061912138,1.0220226,0.74570274,0.6070663,-0.36527258,0.44692665,0.24547373,0.6293284,0.5501563,0.4197641,-1.3153759,2.0825434,0.6614784,0.43539125,0.42421705,-1.0113798,1.1406072,1.4580318,-0.11208814,-0.055379,-0.255021,-0.09497483,-0.3050514,-0.2800924,0.15989797,-0.7913625,-0.16221222,0.16977626,0.7794426,1.211533,1.2121365,-0.08902651,-0.0018967447,1.5469227,-1.2765887,-0.64604616,1.1589112,-1.020746,-0.7766316,0.24934988,0.3181586,-0.57437813,-0.26229164,-0.83602005,-0.28969046,-0.26538917,-0.012440105,-0.06595776,-0.49253222,-0.066633224,-0.38184205,-0.17375448,1.7818334,1.7468224,0.37478808,1.0686485,0.38504872,-2.3649328,0.5225198,0.92565787,0.5643696,0.21361557,-0.058789622,2.1024854,0.43330815,0.041420124,-0.7043739,1.1173233,0.5548167,-0.97723323,1.2104034,1.4736149,-1.2409785,-0.85244685,-1.2155849,-0.48351398,-0.22973838,0.90520644,1.4840744,-1.1224754,-0.38279235,0.11383425,1.4750236,0.47286305,-0.09685763,0.7670873,1.1123197,-0.7102182,-0.20524718,0.88381195,-0.1772308,0.62863463,-0.22738592,0.1991771,-0.4863144,0.27331406,-0.4982228,0.08407884,-1.8145468,1.0857713,-1.271444,0.8459253,-0.69346184,1.6598881,-0.85396796,-0.18524627,-0.5229481,1.8220009,0.2738744,-0.59617144,-1.3952087,-0.76697826,1.128189,2.5312796,-0.56399393,-1.0089062,0.8707469,-1.1794418,-0.72098136,0.78567725,-1.186147,-0.33115435,-0.40244725,0.937579,1.4505453,1.1486968,0.9294824,-0.29996827,0.55539304,-0.113693126,-0.27862328,-0.75854117,-0.1924962,0.79352796,-0.08985935,-0.032712176,-1.3987706,-1.4142742,-1.2657241,-0.57894295,-1.7123641,0.24985988,-0.59664273,-0.0973286,-0.13534872,-0.83685374,-0.074897856,-1.1287317,0.24555397,-0.48837194,0.4235644,-0.3243002,1.2235501,-1.307732,-0.054744802,-0.1008473,-0.69869125,0.7530972,-0.48438072,-0.52839273,-0.5974893,-0.20291384,-0.6616621,-1.9315286,-1.0505829,-0.9834872,1.8007878,-0.9261483,-1.7852535,0.44027284,-0.8635023,-0.90000534,0.26429653,0.11347136,-0.41891623,-0.29285315,-0.42139503,-1.5407772,0.4347194,0.64105576,0.4989571,1.2364167,0.5834952,-0.9818796,-1.4663768,1.2331259,0.9737517,-0.6563017,-0.047074713,-1.4495873,-0.9149474,1.0447091,0.6903048,0.48917162,-1.2982367,0.548704,0.4199092,0.55932105,0.25206545,0.33547795,0.060217977,3.2454712,1.1802166,-0.5189193,-0.785766,-1.6624453,-0.7004833,-0.14501077,-1.4009452,0.48644003,0.9964517,1.9136673,1.0989145,0.5905936,0.33154005,0.22572383,0.03154857,1.188371,1.8565731,0.1218663,-0.3310389,-0.8299249,0.37287882,2.106184,0.69291747,-0.49425593,0.5169664,-0.00989271,-1.3785973,0.33109,-0.19500108,-1.5839543,-0.27642763,-0.22622801,-0.74885184,-0.42521134,0.7705645,-0.86902326,0.79432803,0.64490557,-1.083584,-0.52409005,-0.30840015,0.8039581,-0.3893805,1.0631312,0.8129838,-0.6391019,-1.6628978,0.6150006,1.4631009,-0.18301226,-0.352901,2.6340458,0.25914982,-0.46872467,0.7639748,-0.4257691,-0.007007644,-1.3284012,1.2211559,0.5043337,-0.011054388,-1.0474385,-1.0466412,-0.58499813,0.4570455,-2.1722548,1.0047683,0.0034832477,-1.5816914,-0.055359613,0.5797281,0.7878669,-0.5394147,0.5570414,-0.58334905,0.48779443,-1.009209,-0.51301485,-2.3054093E-4,-0.78455865,-0.91189164,-0.5705413,0.71606493,0.57969683,1.1148349,0.25216,0.09287293,-0.16500627,0.8198685,1.6793461,0.5353735,-0.2527674,1.9593567,-0.73638177,-0.18028513,-1.6054662,-1.9333197,-0.9808894,-0.7237838,-0.32566518,1.8111601,-0.48106956,0.5653282,0.50823486,-0.14120795,1.1481588,-1.2502315,-0.9313668,2.6882882,0.7974124,0.3602273,0.4160818,0.6626065,0.50303453,0.041044023,2.10352,-0.45515278,0.7040823,-0.8188258,0.32997447,1.9107169,-0.70173216,-2.0125997,-0.36206234,-0.916749,-0.5791823,-0.6542243,-0.60015494,0.48762292,-1.2712916,0.9525382,-0.36763862,0.2243243,-0.68551075,1.1527982,0.33026108,-0.28772497,-0.19140811,0.047754485,0.1487865,-0.6977841,-0.4170804,0.5426101,-1.3543156,2.485431,0.011739124,0.7118141,0.06902753,-1.2310671,-0.30577996,0.7311182,-0.7237424,-0.85719526,-0.5371951,-1.4959782,1.3052295,-1.4300402,0.4483621,0.091803476,-1.2287946,-0.7071497,-0.51755726,-1.4986053,0.24937336,0.3939087,-0.018003939,0.31155777,0.142216,-0.90693927,0.5454371,0.4203472,-0.33201012,0.47981888,-0.015600236,-0.15331514,-0.39334476,-0.9360078,1.277715,-2.6804109,-0.23729712,0.38246188,0.14341028,2.083957,-0.60149664,0.052621875,-0.022404367,1.1917971,0.44682366,-0.032941043,-0.043470215,-0.9134308,0.7699622,0.1350788,-0.17977646,-1.4136535,-1.0882134,0.42121714,0.43878704,-0.41551793,0.32781819,0.44967222,-1.5454843,-0.06836623,0.98739856,0.4322244,-0.64956784,-1.0382158,-0.105127886,-0.69852936,0.5432973,0.4941464,1.1116204,0.02594533,-1.1237162,0.36745784,-1.2364563,-1.2805179,1.1225383,0.29672185,0.092133194,-1.3336724,-1.6947898,-1.2910286,-1.274614,0.73321605,-0.37894663,-1.0809348,-1.6997597,-0.08039226,1.4858478,0.5136048,2.3211102,-0.26783314,-1.5912731,-0.036774363,0.08798583,0.15580119,-0.099903695,2.2290893,0.92239213,-0.8618307,0.25703993,-0.8857537,1.3321395,1.3374445,0.82936186,-0.55952686,1.078732,0.9074853,-0.14291102,1.0365018,-0.5875259,0.18140186,-1.0132115,0.9661394,-0.39765108,-0.024367707,-0.939064,0.083791815,0.09034461,-0.5424832,0.08231895,-0.6599119,-0.62482166,1.4582431,-0.59819084,1.5183604,-0.5606963,-1.6729515,-1.0305796,1.5718856,-0.8816828,0.5980301,-1.2618482,0.13951713,-0.3225576,-0.3845069,-0.18713295,-0.4739577,0.40912205,1.7032216,0.5857597,-0.8068669,-0.8329296,-1.0912076,0.60194623,-2.4357364,1.0170982,-1.1326144,0.66480434,-0.098685995,0.021599805,0.029325701,-1.663055,1.211326,6.064282E-4,-0.5650351,-0.71995324,0.58314097,-0.44445384,-0.51175344,0.87315875,0.8066392,-1.2811666,-1.5880566,0.2363584,-1.6417843,-3.7275128,-0.42010438,-1.6705678,-1.4037557,0.9707028,-0.2864382,2.197003,1.27446,-1.0114954,0.56171995,-0.3828932,1.9449317,0.18668608,1.0634815,0.28155395,0.5659936,0.6855222,-3.1328964,0.09878786,-0.6345117,0.31929407,0.8354488,-2.0598173,0.90206474,0.5627185,0.1954217,-0.39586788,-0.45154107,0.870433,-0.44114098,-1.287828
1,6,0.79181063,-0.17442794,-0.14021233,0.4123155,-0.84361863,0.35363495,-0.93679076,-0.224522,-1.2812696,0.3846252,-0.67154515,0.9732874,-0.29286775,0.053695917,-1.7583985,0.3949853,0.6847078,2.3450413,-0.62960017,-0.37322834,-1.3026547,-1.2293928,1.7776449,-1.881221,-0.21137042,-0.40714973,-0.76601195,-0.6372609,0.6712781,0.45855427,0.26657578,-1.4556055,2.1398563,1.6900095,2.077938,-0.18846175,-0.8909835,-0.14022811,-0.9710899,1.6255738,0.62567776,1.241741,0.88239706,-1.2241911,1.1684545,0.7157679,0.14453962,0.06738718,-0.3394396,-0.7462316,0.15745713,0.8664345,1.9090406,0.3302633,0.48167658,1.7427173,0.099513926,0.5274315,-0.46160522,-0.6394699,-0.09951858,-0.29968762,-0.19113068,1.3427567,-1.3048347,-0.36953625,0.15319082,-0.57899714,-0.11154533,-0.71718466,-0.854701,1.2292379,-0.14105798,-0.79370964,1.4829497,-0.3902474,-1.2998347,0.4230999,0.15485267,-1.9979159,0.5350752,-0.3734947,0.12590525,-0.3826115,-1.0529824,-0.31902552,0.364188,-1.3595502,0.85774195,-0.3075674,0.8616112,0.13864769,-1.03832,0.55582106,-0.0024811502,0.0012740975,1.6237726,-1.0937448,0.11268195,0.26025784,1.1534768,2.2158377,-0.54772973,-1.7078459,0.94849855,0.9403041,0.36050823,1.4700289,0.2732112,1.0459312,-0.013078823,-0.050937887,0.54979706,-2.2425194,-2.7534606,-0.26886743,0.041107457,1.0489271,0.5705811,-0.09747767,-0.37550429,-0.9377339,-0.6632752,0.090776,0.470935,0.82934034,-1.4005636,-0.55641687,0.23436923,-0.005049867,-0.10802248,-1.5188365,1.3190157,0.37056732,1.1312973,-1.1226135,0.49887577,0.6963216,0.24236257,-0.28451854,-2.1894448,0.6335105,-2.3402762,0.35494176,-0.75227875,-0.83709764,-0.38657248,1.2527058,0.85263836,1.5833079,0.08808748,-1.9505233,-0.25082758,-0.22893956,0.43836102,-0.4295679,-0.54682696,0.11112906,0.48196343,0.19628768,-0.36521026,1.1878452,0.7667019,-0.9809312,-0.3780655,0.8402064,0.2464761,1.9599335,-0.83191067,2.2045112,-1.9628646,-1.7111537,0.21732078,-0.61004394,-0.20748447,-1.7661756,-1.5948733,0.5205704,0.46634954,-0.558834,0.5282538,1.5129275,0.2615485,1.6159061,0.4892126,-1.0795897,0.66374844,1.9933107,0.37679338,1.6015898,1.1661403,1.7156293,-2.643729,-0.37728685,-0.002716431,-1.865849,1.4117217,1.0641516,1.2809985,2.0929577,1.8829025,0.042118542,-1.9169091,-0.3947258,-1.0271821,-0.6235177,0.28933036,2.7662363,-0.88789934,-0.14996387,0.82147515,0.988319,0.523612,-0.6216458,-0.71737874,1.1214223,-0.5937912,2.49647,2.3894844,-1.4702225,-1.3183075,0.9098615,-0.13303876,0.8931882,1.494493,-1.3052601,0.7612681,-0.015081549,-0.8771366,-0.5308571,0.38430464,0.23611219,-0.5333719,-0.34293872,-0.31788254,0.121006794,0.32640693,-0.10968745,-0.8468166,0.332272,0.24911012,-0.49048635,1.4162366,1.4362994,0.45927724,-0.83179384,-0.47143787,1.2778761,-1.4955335,0.9044531,1.5675461,-1.7850018,0.41557214,0.7521993,0.036254793,0.033264186,-0.5748328,0.9164938,0.08622948,-1.2130433,0.9234476,-0.93819034,-1.0980912,-0.41477674,-0.7054812,-0.0608275,1.1520711,1.8168126,0.831435,0.17254248,0.54930973,0.59754264,-0.4201271,-0.9217088,1.7667975,1.8696966,-0.4765021,-1.2198057,1.2033448,0.585371,-0.37892723,-0.5699313,-0.78058565,0.8008066,0.08053133,-0.3100619,0.4318,-2.586975,0.47847524,1.1634064,0.18933909,2.7770395,0.53646934,0.40974313,-0.46688303,-0.6503457,-0.14823213,-1.5283275,0.46545088,-1.8172224,0.43614757,0.2600023,0.11040997,-1.6540778,-1.8225911,-0.14143,-0.88077563,-0.83453727,-1.9434133,-0.14672576,0.47537863,0.29334456,-0.5408738,0.42503706,-0.601915,0.14929618,0.58144724,-2.5125973,0.5359537,-0.39376515,-0.99685025,0.43603414,3.0012183,0.48950705,0.017780697,0.95928013,0.92385036,1.6433289,0.9779568,0.754942,0.9213412,-0.74498844,1.6530004,-0.74765617,-0.23418093,0.14356288,2.3210845,-0.7704354,1.9160608,1.6328883,0.988113,-0.25345394,-1.6225872,-0.4228777,-0.28695014,-1.9377598,0.13025157,1.8285447,1.0531449,0.41032445,-1.0832865,-0.13070835,1.5234874,1.1386253,0.77224725,0.11314586,1.7447301,-0.9927761,0.12901525,1.2522565,0.9616177,0.6024033,-0.7547729,-1.0988327,0.9839671,0.69011325,0.23253582,0.88638717,1.3839087,1.3066026,1.585784,1.895252,-1.5235225,0.056393266,1.1206024,0.5476554,0.72043115,-0.40509322,0.9517485,-0.49326673,-0.80304503,0.4493036,-0.23717505,-0.12295404,-1.523844,-1.511592,0.47108325,0.67449564,1.7294692,0.36529878,0.8302132,1.5564092,1.9958978,1.0338355,1.323217,1.4838041,-0.22741292,0.23506787,0.22906667,0.4690523,-1.2117354,-1.6211113,-0.6175435,-0.5051305,0.7829483,-0.883394,0.38893506,-1.7762371,0.5467323,0.16695647,0.26538995,1.3721112,-0.061199147,0.8402709,0.31856823,-1.1420352,-1.4459381,-0.7894838,0.14682525,0.50645846,0.48217344,-1.1161733,1.03495,0.7744036,0.4732772,1.118049,-0.9740849,-0.62094784,0.4605624,-0.5313106,0.16549544,-0.2217002,-0.8996158,-0.9855714,0.6014142,0.85915977,-0.07578775,1.9639935,-1.2496613,1.5757035,0.114682876,-2.0911088,-0.88900936,1.6230942,-1.0498751,0.8654245,-0.54386044,-1.2809615,-0.23748358,-0.47811225,1.484397,0.22848605,2.0042396,0.5673911,0.6353953,1.1581266,1.004226,0.9192751,0.55735254,-1.1124741,-1.0326971,0.8234256,-0.9298933,2.010354,-0.30937383,1.2087729,-0.1475655,0.35855108,1.7213575,-0.9382683,0.6026523,1.1288116,1.3710701,1.4502323,0.64861506,-0.38836884,-1.0721161,0.952864,0.8905261,1.1967148,-1.6542231,-0.7316748,-1.9480284,0.15755346,0.13878253,1.4001104,0.37599742,0.9016103,0.37544814,0.08018449,2.2106473,-0.8461813,-0.9438255,0.7871207,-2.171157,0.2667327,1.7588409,-0.7072371,2.010489,0.0601375,-0.17468,-1.5413328,0.26276726,-0.47846863,-0.6971042,0.6876098,-1.7950473,1.5070744,-1.4878763,0.6237995,-0.26393682,0.111707084,2.3631978,-0.06916125,0.43967506,-0.27206817,1.0924915,-1.8569472,2.2202811,-0.8809564,0.18883419,-0.8780025,0.24475199,-3.0202918,1.3228784,0.8127564,-0.40540427,-0.35496613,-0.6044347,0.9184862,0.4128658,0.55547297,-1.0112848,-0.562837,-1.7076503,-0.00926772,-0.9478948,-1.2827475,-0.7294746,0.15886062,-0.048659973,0.15042706,-0.8816675,0.9377838,-0.2388885,0.51896,-0.037980467,-0.31941095,0.3070916,-0.50088763,-0.14082128,-0.8837181,-0.18338792,-1.0119163,0.6505054,-1.316378,-0.8578846,1.1490104,-1.2499887,0.5086074,-0.865757,1.3783579,-0.73079914,-1.0593739,-1.3614184,0.19314532,-1.7608048,-0.22792406,-0.5209893,1.1496103,-0.9802073,0.3195106,0.2559954,-0.44869694,0.29385677,1.3971684,-0.7564202,-2.4305406,-0.47897148,0.6871058,-0.49759036,0.13354096,0.48528093,1.2112588,-0.24920718,-0.08012541,0.6414762,-0.0139451455,-0.69168895,-0.65055346,0.77318156,0.80758214,-1.7485533,-0.20696329,-1.7226815,-0.54749554,-0.92574006,-0.16520211,0.630322,0.44506112,-1.2334079,1.5350804,1.2370651,0.7843293,0.73429376,2.5891492,0.52756625,1.5516564,-1.2839942,-0.5763916,-0.2324816,0.6713566,-0.23931515,1.0987184,0.45510033,-0.4086571,-1.1347361,1.3178866,-2.0280936,-0.49513564,-0.8518653,-0.13460723,0.24990092,-0.59160596,0.9582286,-0.11299498,-1.7981236,-0.44980776,-0.07493334,0.9728702,0.4862829,-1.8325646,-0.50671,1.1718446,-1.8698508,0.20201325,0.982415,-0.27933788,-0.5019476,0.6111012,1.0956516,-0.27212954,0.7836161,-1.1011633,1.4848847,0.67391837,-0.3508247,-0.9169599,1.5650804,1.1467637,0.47490513,0.6418049,0.005385355,0.32178554,0.6322688,1.4166765,0.28217006,0.18248504,-0.3734472,-0.7152674,-1.5003407,-0.28965187,-0.18425092,-0.57785803,0.88471353,1.320897,-1.0326407,0.19481073,-0.8195126,-0.4644329,-0.32478568,-0.53583527,-1.5871878,-0.21945052,0.21274602,0.62276393,-0.44046906,1.1985365,0.27950773,0.0588438,0.021642502,-1.0124584,-1.1243048,-0.18196899,-1.0304317,-0.51784784,0.54106474,0.63206327,0.16714239,0.52368695,-1.5717094,0.27881625,-0.12159699,0.116354965,0.16518822,0.5754098,-0.79192346,-0.903334,-0.55207944,0.47458184,0.2851565,-0.95151496,-1.5479299,0.067869134,-1.000289,0.61693114,-0.46594512,-1.0986863,0.08181734,-0.50706017,0.82176167,-0.11797462,1.0986538,-0.41970313,1.0933594,-1.237321,-0.48184726,-0.48863155,0.5697736,-1.3886539,-1.2701826,-0.8461937,1.3394347,0.09379838,0.058144398,-0.32195997,-0.38586262,-0.47589037,-0.4135399,0.12289305,-0.7082338,-0.34987545,-0.7988996,-0.047056083,2.0323977,-0.13445064,-1.2695894,1.203692,0.44351166,1.1139863,0.8474313,1.543894,0.62675357,-0.88267154,1.1315744,0.8532284,-1.2991623,-0.39963025,-0.112046316,-2.354974,0.44002807,1.5316204,-0.30259895,-2.1559427,0.15480334,-1.0896832,-0.4226004,-0.9212044,0.16636242,-1.6098881,-1.2413616,-0.64424986,-0.64600134,-0.2819952,1.4406668,-1.5084069,-1.912116,-0.8850615,2.1560338,-0.3792488,-0.91426116,0.2658691,1.4453342,0.1843463,0.53656423,0.7160655,-0.36088043,0.24085303,0.62479305,0.10148614,0.28579015,0.7545381,-1.1552567,0.48710328
1,7,0.2645314,-2.5053494,0.23866256,-0.6654386,-0.07581279,-0.19671464,0.29187497,1.5209559,-0.88663375,-0.8629195,0.7353087,0.9352642,0.3936458,-0.028931826,-1.0627269,0.3913554,-1.4061574,0.3607646,0.7393519,0.71122736,-0.14712523,-0.7236444,-1.3653564,0.9510161,0.22618854,0.3590942,-1.2963085,-1.472901,0.25045726,1.281356,-0.18087941,0.052381556,0.8641299,2.1139488,0.3576373,-0.21362941,0.40649852,1.076943,-0.42130414,-0.12343448,-1.6172928,0.2601308,-0.45950022,-1.5874872,-0.70497763,1.7151103,0.26669,1.7734,-1.6627846,0.3462184,0.5235505,0.01138872,-0.4628321,0.2166374,1.1591401,-0.46738532,-0.18000232,0.25673312,-0.7690632,2.3476892,-1.4847516,-0.6039314,1.1301876,0.19919837,-0.40809923,1.3303026,0.60581446,0.08964594,1.6730686,-0.40074545,0.072823174,0.06054273,0.21604194,0.49371365,0.052056905,1.0116816,0.07654584,1.0867141,-0.79765254,0.9540739,-2.1208332,0.12881717,0.7934466,-0.48766473,1.3466352,0.5721056,0.32257235,0.7880482,-0.048110094,0.77583516,-0.20792256,0.9688385,-1.0741651,-1.0594199,0.5918483,-1.3049921,-0.3742938,0.05662553,0.6451349,0.4468745,-0.81304634,-0.43179446,0.04396394,0.048040327,1.0794326,-0.66821223,0.24143131,0.18251422,0.5401356,0.17732953,0.51154786,2.2511845,2.5954103,-1.2956251,-0.4733554,0.53514177,0.3683591,-0.3915251,-1.5746448,0.88842434,0.4847078,-1.5304366,0.3299588,0.90931654,-0.005384097,0.42368355,-0.89323044,0.75578415,-0.6571177,0.69304144,1.2627426,-0.15715529,0.5527062,-0.6087307,0.22496177,-0.15493305,-0.28282094,0.093636826,0.37055925,-0.41464594,-1.2020268,0.17737631,1.1256675,-0.7419336,0.6494331,-0.7432737,-0.5746768,1.0091956,1.1818627,1.0975262,0.16146034,-0.0100764,-0.7538676,1.2527397,0.23912784,-1.7252381,-0.99551123,-0.85152125,-1.2811285,-0.79202175,0.16271491,-1.1314881,-0.3267085,0.48995885,0.24672134,-1.0111023,-0.4879321,-0.32638502,-0.29638273,1.0578803,-0.18821934,1.5258933,-0.07941841,-0.27949008,1.2382655,-1.6255757,0.94840986,-0.09525673,-0.8406221,-0.5121714,-1.978001,1.3559927,0.23809317,0.3963231,-1.6346824,0.03659545,0.032004505,0.7984365,-1.1733117,-0.31937268,0.27712476,0.87229663,-2.327336,2.466377,-0.1661319,-1.2001371,-0.81125414,-0.3925988,1.6896837,0.28671512,-0.080291905,-0.26125604,-0.32243383,1.371864,-2.272709,-1.9716225,-0.4603451,0.58514875,-1.7450773,-1.849444,0.6057348,0.19669494,1.210855,0.67894167,1.3016213,0.07620285,0.45337015,-0.21107748,-0.96759886,1.2213112,-1.9719043,-0.47216487,0.49640438,-0.80716884,-0.0034779077,-0.86703515,-0.1694878,-1.1831933,0.07934385,0.07622944,1.6125478,0.18693247,-0.06933045,0.34372967,1.960088,-0.017363554,0.16509628,-0.42404452,-0.9186893,0.22497351,1.5460395,0.36332667,-1.7716565,1.3390616,-0.43028235,-0.09600807,-0.57423264,-0.550928,-2.021895,1.1145633,-0.48364434,-0.23606491,1.2873062,0.59703094,-0.9050996,-0.14379223,-0.3696917,-0.49113548,0.38307315,-1.5467073,-0.28466877,-0.6038338,-0.7904908,-0.27193615,-0.09362966,1.1145371,1.077015,-0.3589434,1.3794028,-0.1884913,0.08947892,0.0014159725,-0.36416852,-1.146071,-0.036173165,0.9274862,-0.14149009,-0.7925021,1.479832,0.3319893,-0.10920362,-1.0145193,-1.6591301,-0.61565095,-0.11549257,-0.8954747,1.1405925,-0.7731759,1.1277527,0.3005813,0.41982412,1.3418367,1.0017974,-0.879782,-0.43831256,0.5388305,-0.36467043,1.236075,1.0668814,-0.10690249,-1.0041333,-1.188093,-0.40897116,0.93235046,0.07298446,-1.2315865,0.14568913,0.4707886,1.1553476,1.71922,-1.0176258,0.4685827,-0.87100595,-0.014244966,-1.0469449,-0.64062804,-3.1705453,0.02746121,1.2485747,0.42404407,-0.04968444,-0.86199945,0.7304116,0.3374166,1.1914326,1.0815135,0.4594106,1.192754,-1.3451155,0.38293976,-0.35098103,-0.23158173,0.75005877,0.3871766,0.34102944,-0.6329895,0.14641912,-0.3450876,-1.3031943,0.58265907,-0.04088312,1.269124,-0.04917408,-0.1522334,-1.5909747,-0.59046435,0.5028355,-1.526193,-0.41757867,0.19331661,-0.7096473,-0.12740743,1.6530112,-1.752098,-0.25167796,0.14776449,0.2281675,1.1574274,-1.0426929,-0.92114383,2.2792358,-2.0484207,0.744632,-0.22971196,1.840307,1.5196333,-0.0425999,0.45012793,2.2305582,1.2323859,0.9083453,2.6326675,-0.7944882,0.47662386,-1.2584311,-0.2460612,-1.4341261,-0.48609364,-0.9163541,-0.23080303,-0.038377583,-0.6602577,0.34206384,1.5180477,0.5977318,1.0103874,0.86202615,-0.5053532,0.7421478,0.06141977,0.7884955,0.30119362,-0.07352794,1.2285413,0.6729542,-0.17359747,1.7388564,-0.34411475,-1.018403,3.0101156,0.5227404,0.3260679,-0.8227136,-2.311862,0.61143935,-0.059668783,-0.3091329,0.27543515,-0.4092005,2.592241,0.8337981,1.9600786,1.16985,0.81576467,-1.7534457,-1.0196918,3.1079397,0.10070332,-0.28870016,-0.39026874,-0.025220737,-0.7499438,-0.6209495,-0.88086915,0.43781954,-0.6402315,1.5805514,-0.9463676,0.45160672,0.7809708,-0.025808344,2.3821683,3.2648842,-0.37315434,-0.26367438,0.14547937,0.5956473,0.797002,1.2386566,0.058896247,1.9753354,-0.6288224,1.1848954,0.1467727,-0.10178892,0.029353207,0.012228928,0.5059204,-0.58311117,-0.10117731,0.31904358,0.19605783,-0.79832417,-0.24068126,-1.434673,-1.1824496,0.5028408,0.6735935,-0.29266918,-0.70983785,-0.22393472,-0.017975144,-1.2290384,0.47600013,-0.3724073,-0.994597,-0.11542107,0.9502434,-0.48380136,0.30694383,0.79252106,1.6445309,-0.10445254,0.37374434,-1.3930649,0.041302785,1.6711967,-0.39931157,-0.9463317,0.13505228,-0.8951853,0.054744642,0.73977304,0.05576143,-0.36572537,0.9776564,1.7714012,0.21668822,0.053708125,0.17814565,0.6586843,0.045911007,-0.92968965,0.38224313,-0.5626262,0.7646548,-0.5136953,-0.8906106,-0.13147312,-0.8810601,-1.1406586,-0.7125728,-0.8118756,0.11454591,1.1170875,-0.041878656,-0.27816948,-0.8633529,-0.58671933,0.38596725,-0.67407185,-2.2457626,1.2273958,-0.46522224,-0.22125518,-0.42001855,0.83126783,0.28207973,-1.3702141,0.5287508,0.16620839,-1.1603118,0.22408332,1.499657,0.88578314,0.123908214,2.3826275,-0.7741758,-0.081273526,-0.374218,-1.8970227,-0.16886912,0.3483307,-1.1660057,-0.8067546,-0.97699976,0.117169224,-1.7333609,1.1189063,0.26118946,-2.0186641,1.3040898,-0.33043304,0.67375183,-1.6063087,-0.26673254,-1.7441473,0.5199673,0.6147152,-1.2217212,0.39726728,-0.028617863,-0.30859643,-0.6896339,0.0012264353,0.45487672,0.8473494,-0.19316773,-0.8606316,-0.4856326,1.083425,-0.891231,-0.60477304,1.9327141,1.0915879,-0.0785608,0.5687404,-1.2167716,-0.65066576,-0.20043735,-0.55908376,1.0351536,0.36460963,-1.2147534,-1.032105,0.5344984,0.42107314,-1.0453075,-0.2214298,-0.7350744,1.2311224,0.8523586,-0.6384193,1.3581316,-0.8058252,-0.13602269,0.43046772,-0.83376855,-0.9498676,-1.2631177,-0.68458635,-0.698018,0.29533964,0.41016462,0.8899335,-0.48141178,1.7811778,0.7709833,0.82447356,0.8055373,0.38661733,-0.5577171,0.30132356,0.7909983,0.7847431,0.71295357,-0.8224565,0.6371216,0.5511633,-0.16356353,-0.5438891,0.3631846,0.50064874,0.8121036,-0.21307537,-0.4976955,0.64119714,-1.7929261,0.9573507,-2.1201582,2.1973786,0.29163855,0.40666136,2.1933095,-1.126154,-0.16804363,-2.0042555,0.023303686,0.808443,-0.9302144,-1.1312993,-0.15027565,-0.571185,-0.20145503,0.94102544,0.8173364,-1.9146187,-1.315958,0.122134,-0.8841027,0.5407378,-0.4034879,-0.29751173,-1.1460134,1.4351479,0.3133593,0.62867063,0.64978266,-0.36697575,-1.1990232,-1.0496984,-0.9619936,0.24717413,0.5279882,1.4269068,0.17210692,0.39154616,1.1041462,-0.03152283,0.84094846,0.8245557,0.66713667,0.5753199,-0.07360688,0.18607648,0.004327466,0.41142967,-0.6395429,-0.37903076,-1.86733,0.40701628,0.044654757,-0.2227943,-0.6080942,-0.112498365,-1.2555972,-0.86130315,-0.9435659,-0.3155445,-0.046295993,-0.32675067,-2.6823025,0.2835597,0.07592194,-0.6148671,-0.50458753,-0.20149103,-1.8582798,2.0677042,0.68354934,-1.5026863,0.61832756,-0.73840815,0.6490396,0.7246384,-0.61089563,-0.9516303,0.6496708,1.6992968,0.21272926,-1.6486626,-0.13124184,-2.0867085,0.25144327,1.8865733,0.989981,2.8065422,0.8877272,-1.2332009,0.5794098,0.24137205,0.7928383,0.7577534,-0.3058527,-0.8190552,-0.06701592,-0.23064429,0.665223,1.265455,0.9774062,-0.16081987,-0.5921521,0.015621615,-0.7992105,-0.37150744,0.6269221,-0.8829398,-1.2936066,-0.27786478,-0.9877697,-0.6632509,1.4675051,0.48031947,-0.77734923,0.09074284,-0.81588346,-0.31481925,-0.367037,-0.47045964,0.11475539,0.9373323,-0.6082257,0.2563463,-0.16312483,-0.5674135,-0.93578947,0.8289807,-0.32410952,1.0026029,-0.041836604,-1.6758376,-0.38844153,0.41590142,-0.88832206,-0.3794883,0.95447123,0.5284995,-0.5889722,-0.05755693,1.7453272,1.1563377,-0.94178915,0.336922,0.91964996,-0.72515416,0.23004796,0.41092682,-2.4861135,-0.44305536,-1.2510723,0.07971861,0.24239813,1.4684386,-0.16800086,0.18276018,0.5148408,-0.78372294,1.6261846,-0.09523147,1.1463226,1.108974,-0.6513564,-0.7817546,0.84250385
1,8,0.015900945,-0.57669985,1.548861,-0.27800196,-0.9489334,0.85914457,-0.03720871,-1.239301,0.5500522,0.16851205,0.52579445,1.0260674,3.7167554,-1.0623813,0.036358055,0.5130541,0.7186693,0.1414701,0.25821498,-0.22754337,-0.037294425,-0.40250286,0.5701851,0.89900005,0.38325736,-0.96442145,1.3944335,0.9700654,-0.510528,-1.4421215,-0.8254178,1.2444651,-0.4039192,0.64304703,-0.7707443,0.63967067,-0.62754554,0.8095,-0.98739445,1.1238073,-1.4185686,0.35108283,-0.009923847,1.2547486,0.3445921,-3.0169592,-1.0058361,0.43816757,-0.02487962,0.6450476,0.48379445,-0.5568896,-0.92182606,1.2953442,1.2313933,-0.06405261,-2.2491446,-0.37408066,0.41057318,1.6075569,1.4245005,-0.504995,-0.35818306,-0.4587009,1.7388515,-0.14447391,-0.7123588,0.89418143,-0.81107587,1.7665933,-0.7214604,-0.6055421,0.65419865,0.2677345,-0.4031034,-0.3183774,-0.7797106,-1.0125438,-0.2312614,1.134212,-1.4713434,0.92110145,-1.5616608,-1.1841146,-0.38266325,-2.68448,-0.3469771,-0.9478216,-0.29033884,-0.19407216,1.0742638,0.3338764,0.79531735,0.5070616,-1.4613076,-0.38979772,-0.15594345,-0.16128495,1.6198294,-1.9774574,0.44215295,-0.019833174,-0.4001911,-1.2624025,-1.0374274,1.0702857,1.3852291,-1.3780279,-1.3698003,-0.054115694,-0.407094,-0.41701886,-0.26240548,1.429782,1.0795035,-1.9325283,1.6315271,-1.7543015,-0.099642225,0.5783448,-1.2680323,-0.42401183,-1.2979308,-0.7344243,-0.8839514,0.110422775,-0.49982512,-0.12391589,-0.07313229,0.3508683,0.030031946,-0.28332728,-1.6600652,-0.66315013,-0.8769835,0.25816733,-0.024106162,0.094499975,1.1997048,-0.7134916,-0.1294143,-0.25651354,-2.583779,0.85134614,0.00809232,0.15048392,-0.10827384,0.5115191,1.8758,-0.92923963,1.0926713,-0.9008678,-0.5386023,0.24938506,-1.9310355,0.79516417,-0.5220964,-0.4052486,0.38912344,0.6228177,0.44261834,-1.0406123,0.25440365,-0.78475356,-0.11040866,-0.12541379,0.2770625,0.71372736,-2.2432203,0.71561,-0.3425052,-0.40446016,-1.5851535,1.5125742,0.7326587,0.038956173,-0.5746654,0.0711379,-0.9861765,0.3842639,-0.028580397,-1.7159636,0.009012242,0.22975591,-0.70479244,0.40327376,-0.44894764,-0.41146272,-0.32132614,-1.4033581,1.215827,-0.5117777,-1.5976914,-0.08031734,0.2866301,0.46087795,1.0540068,-0.41370168,-0.31669307,0.8346349,-0.26636222,1.2298955,-0.8730621,1.5561633,1.2879457,-0.8202946,0.07646311,-0.15094267,0.65021914,-0.9708303,0.6072928,0.7579407,0.5506226,-1.7695161,-0.21294451,0.52647614,0.86436766,0.044112545,-1.6031394,0.50394565,1.7359177,-0.49514177,-0.44556585,-0.47892556,1.420214,-1.1937141,-1.1648344,0.42976007,-1.044697,0.7161865,1.5849913,-1.4832921,1.0902377,0.8715118,-0.48228368,-1.829437,-0.7015981,0.24013321,1.1853436,1.2786006,-1.3846581,0.23585463,-1.160825,0.37381852,0.10491699,-1.2799343,0.87552035,1.5608305,-1.590733,-0.0011142412,1.1489072,1.3856989,0.79851204,-0.68954414,-0.021870824,1.1032364,-0.014302326,0.294099,-0.41481513,-0.27451202,0.17945519,0.58368105,-0.24021538,1.651993,-1.0744607,-0.31635967,0.7911916,0.86041635,-1.1209726,0.041045777,1.9123746,1.2680525,-0.1712554,1.2338827,-0.114745975,0.7654289,-1.5557259,1.9375012,1.2718333,-0.6609583,-1.061676,1.4593182,0.9811236,0.9061832,-0.7704417,-0.47913733,-0.14844099,-1.0323381,1.9033993,-0.58026975,0.16755997,0.109310605,0.433106,0.058430493,-0.53135043,-1.5604504,0.08946118,1.4644332,-0.9262329,1.5917015,0.7210626,-1.4586357,-0.63093305,0.68618363,-1.7644792,0.0639333,-0.8697104,0.5946345,0.95217264,-1.7921454,0.23625495,1.3912476,0.25030485,0.15223849,-0.09991244,0.07938053,1.611871,-0.45086226,0.26297742,-0.41421673,0.38818255,1.1219192,-0.44478765,-1.330631,-2.4031558,2.119462,-0.21586572,0.49186563,0.51137835,-1.8076822,1.7094235,-2.5804503,-1.3597722,-0.19013868,-3.144103,-0.43109065,1.9205335,-0.31974956,-0.3723168,0.5737286,-0.9589393,-0.3967783,-0.21691506,0.67422956,-0.37868372,-0.38313702,0.94439894,-0.13827917,1.1917355,-0.1186356,-1.6207461,1.0819534,-1.6434121,0.184376,1.8538064,0.3017792,-0.3389389,1.4446218,1.0442485,-1.1345662,-0.14802222,0.46417403,2.441744,-0.47498477,-0.58157665,0.89815134,1.7115088,-0.89144534,0.37948868,-0.17383674,-0.78843457,-1.3132739,0.34174183,0.17893733,1.3173091,0.8735074,-0.13873236,-1.1348143,1.2657068,0.6319624,-0.0337277,-0.34584156,0.21640107,0.82670075,-1.1328646,-0.85696685,-0.25331137,-1.1277871,-1.6336747,-1.6899301,2.0670455,1.3927251,1.3948095,0.22379225,-0.38586158,0.26915118,-2.792928,-0.65311366,-0.107687384,-1.3756416,-0.24397437,0.99252355,-0.6870552,0.45123354,1.0901878,0.106828384,-1.572228,-0.40969127,0.6816601,-1.0165776,2.0001452,0.2417674,-0.8238873,1.1355734,1.395419,0.8109578,-0.6363558,0.99980396,1.0607923,0.49206293,-1.022805,0.6890905,0.2807773,0.011776093,0.25928894,-0.6348523,1.6241412,0.5873575,-0.55537117,2.1329613,-0.6905822,-1.1181747,-0.21134712,-0.9086502,1.113601,0.47957712,0.41227478,-0.06759127,-0.12941831,-0.83295804,0.8886005,0.45907983,-0.29309443,-1.8088503,1.1825618,1.2091085,-0.43547317,0.36975515,-0.9455078,-0.19541374,0.14632435,0.37552583,-0.13886325,0.28754905,0.46016058,1.0657989,0.84432095,0.07128949,2.4289963,0.24007335,-2.4936917,-1.0518187,-0.7080886,-0.51099044,-0.5281564,0.57533467,-0.23497282,-1.2416092,-1.8002063,0.4804694,0.5055364,-1.3313204,0.14509518,-1.5659401,1.9010005,-0.39402387,1.7110864,-0.98733014,2.2057033,0.2395506,-0.91914505,0.11102026,-1.6005644,-1.2514325,0.34619516,-0.7867446,1.3634976,0.14490606,-0.34275326,-0.42319933,0.51325554,0.8870901,-0.7264902,-1.8290584,-0.512759,0.2779532,-1.5718254,0.6845067,-0.44530225,0.08376097,1.5610373,0.09928908,0.8693971,0.9299585,1.3644414,-0.05208698,0.30122364,0.2212348,-1.2842572,0.64115524,-0.18580797,-0.3043992,-0.25898176,-0.42468053,-0.094030656,-1.1308564,-0.352588,-1.9037774,1.0207762,0.84199375,0.29370955,2.6850424,1.2962689,-0.23595746,-0.9565674,2.2219129,0.0068055843,0.77817464,0.71596175,-1.8541703,-0.8362205,0.6453866,-0.66673577,0.50302035,1.1681931,-0.5874111,2.0547752,0.51994365,2.1272945,0.8471467,-0.58660674,-1.2332773,1.4504366,-0.12586139,0.8712011,-1.0639583,-0.42334,0.5245087,-0.20108582,-0.17022035,-0.43448472,0.8941331,0.9442028,-1.5182621,0.37120867,0.29385364,1.1572719,-2.3050878,-1.1386716,1.1666701,-0.3074408,-0.4409403,-0.4385383,-0.6844874,-1.2427804,-0.49444452,0.5543377,-0.89602584,-2.2223094,1.3822225,0.28846017,0.12866503,0.9913194,0.44269845,-0.49843058,-1.6714472,0.7085922,-1.3497784,0.4068663,-0.5424143,0.79702395,1.7395171,0.63307106,0.16278853,-1.7608103,-0.3283029,1.3297108,-0.20796737,0.63506305,0.28465152,-0.80963415,-0.6144156,2.1800096,-1.5648266,0.04326036,1.2103475,-0.9901226,2.3718567,0.9042379,0.9456555,-0.67855674,1.2110881,-1.2595177,0.019166905,1.7034858,-1.2617519,0.6603646,0.22248559,-1.0495899,1.0759472,0.45857275,0.84447527,-0.111272804,2.0637069,1.172127,0.5237099,-0.48451468,0.06261331,1.420472,0.082631715,-0.263237,-1.7163156,-0.25056824,-1.0524901,0.36644858,0.24387495,-1.0470486,-0.5532617,-0.1664713,0.67152125,0.037652563,-0.29401067,-1.4661057,0.41384962,-0.20527473,1.9549205,-1.2699685,0.8264307,0.866255,-0.105517305,1.3324099,0.73290765,-1.0133369,0.14026186,0.6260718,0.53587806,-0.07433733,-0.39076418,0.2765285,0.5201507,1.322555,-0.46531427,-1.3002324,0.69198203,-0.2916197,-1.3525734,1.8692098,-1.1081188,0.17051546,0.9964016,1.5014857,1.7038013,-0.95174974,-0.5964448,0.095761664,-0.26346362,-1.6478126,-0.20116387,-0.022117615,-1.756601,1.0036316,0.20593382,-2.0091383,0.64102393,0.622987,-0.4929437,0.04818665,0.23494896,0.5379133,-2.115965,-0.49305677,-0.38199353,-1.0480211,1.6569732,-0.09258532,-0.08848787,1.6873423,0.65882474,1.9465283,0.35394752,-0.1959936,1.1800035,1.8616021,0.6222519,1.0335689,0.24507327,1.810845,0.1300276,0.32273224,0.536907,0.9161766,-0.7736275,0.88372844,-0.9735323,-0.40805,-1.0564573,1.6489861,0.8191748,-0.41372302,-0.7369777,0.026574807,1.4790409,0.32427683,1.0853086,-0.9820836,-1.3274151,0.713967,-0.8668477,-1.0245584,-0.3937659,1.9079311,0.18920472,-0.41469786,0.06465415,0.15447003,0.9007038,0.020604437,-1.259695,-1.5741318,0.6876819,-1.3854967,-1.1216086,-0.523792,-0.64071524,0.18911421,0.89962465,0.18120411,-0.13764288,1.6523398,0.5318291,1.1847776,0.054847315,-0.6724619,0.24898086,0.7855649,0.8308491,-0.07873952,0.99236614,1.4923244,0.0551103,-1.0757527,-0.2901692,-0.35431334,1.0585582,0.06002736,0.37478048,-0.819466,1.00889,-2.6345553,-0.1842191,1.2423409,0.058599178,0.5724789,0.03383796,0.7498217,-0.9386982,-0.24904573,-1.2120444,-1.4466285,1.258545,-0.3442101,-2.6599784,0.07286844,-1.0401536,-1.1409429,-2.5935273,1.5911322,0.7118709,0.6255931,0.6605102,1.6388923,-0.3603911,1.3851337,0.3623029
1,9,-0.27362868,-1.4491258,-0.47404742,0.6144441,-2.131368,-0.5353376,-0.6618272,-0.304967,-0.13151416,-0.8628012,-2.303866,0.017842181,-0.05567234,-0.54239964,-0.8973252,-1.1112875,0.91020846,-1.9619226,1.3797991,0.019958481,-0.38266575,1.6797696,-0.3260344,0.17936128,-1.6271853,0.40707785,-1.1343188,-0.21509759,-0.76239353,0.92722684,-1.4998314,-0.3266885,-0.16205488,0.59707093,-2.1011267,-1.485643,-2.0125747,0.53243077,-1.3725988,-1.0927147,0.4957808,-0.39672363,0.06794371,0.62929446,0.29201657,-0.38664046,-1.3144567,0.3135486,0.23853928,2.5647287,1.2940903,0.49550965,-2.0887609,-0.010191036,-0.93737113,-1.6676162,-0.95834196,0.70493567,-0.44223294,-0.2135807,0.5599335,1.9478195,-0.7190892,0.2061026,-1.9710783,0.23625478,-0.8875713,-0.16488342,-1.7667581,-0.8788231,0.27496576,2.2780523,0.27327183,-0.12986043,-1.6074128,-1.4246477,-0.81817967,0.014400225,-1.3266402,0.7748194,0.42767727,-0.65575284,0.540377,-0.72163016,0.33733863,-0.8998466,0.85822266,-0.8845545,-1.597122,-1.5978292,0.2855368,-0.13504893,1.8059201,1.0429964,0.7026861,0.2751425,-0.31901297,-0.34514683,-1.2749625,-0.8939138,-1.5129719,-0.6175897,-1.0837747,0.14176343,0.27875495,0.5145524,0.7493464,1.2842506,0.30179295,0.1199844,-0.81905353,-1.6112685,-0.10626371,0.12834021,0.43145895,-0.47117376,-1.0322479,-0.22698116,0.34934765,0.021583028,-1.2068518,-0.8578281,-0.8217035,-0.894936,0.4011782,-1.7034742,0.2550078,-0.9856708,-1.7278333,-0.90202683,0.66077,0.74701566,0.15666254,0.40101552,1.4848578,-1.5559081,0.27837405,-0.21643336,0.67032695,-0.71455973,-0.9638299,1.3708912,-0.42506617,-1.2287537,0.15579148,-0.8380166,0.9645368,0.10884736,-0.90874296,0.5039387,1.0675205,1.2854006,-0.33649856,-0.7799127,-0.50070727,1.7287521,0.362648,1.5984455,-2.4690118,-0.38945252,-1.2730532,0.6636287,-0.8223085,2.1012383,0.00887508,2.0124147,-0.5843647,-1.3375746,0.36617973,0.8768178,-1.1219009,-1.1370484,-0.64019847,-1.6521634,-0.1904919,1.0507764,-0.6848772,0.11703148,-0.03175633,-0.30414554,-1.7718923,-0.1272285,-0.76286995,0.67076635,-0.24638233,1.005012,0.9692812,0.5744588,1.8995801,0.5247504,0.61129934,1.6833451,-0.86330545,-0.6325381,-0.44490176,-0.94693995,0.16823038,0.7110422,1.6947075,-0.77561545,-1.6349145,-1.2479017,0.74211574,-1.6376714,-0.5529277,-1.4780887,0.55465454,-0.8441201,-1.3754959,0.60342824,0.19499105,0.028951427,1.1188275,-0.7363795,0.6516039,-0.02915596,0.19541259,-0.86069167,0.07016442,-1.0155665,-0.5480698,0.3384345,-0.21743605,-0.5420875,0.035241287,1.4238738,0.2824075,0.028766075,-0.10444312,-1.5330032,0.35241258,1.0845208,-2.376182,-1.445838,-0.41069603,-0.595053,0.17271677,-1.0390712,0.79706275,-0.57771385,-0.86776155,-0.799084,-1.0410253,-0.6544603,0.03276049,-0.83917165,0.09655735,1.3217399,-1.5641851,-0.9433167,0.13310464,0.84741783,-0.0033725784,-0.5932263,-0.60508174,1.1826829,-0.77498865,1.44047,-1.0220678,-1.2754964,1.488035,0.21077996,-0.3862657,0.57216036,0.5857432,1.4651958,-0.4866816,0.7255959,-1.0702997,1.0130683,1.0763855,3.0236642,-0.2670859,0.47756654,-1.5677191,0.062433556,-0.79000676,-0.0885675,0.20775594,0.72406894,-1.849931,-0.101561524,-0.15413728,0.8033747,-0.114960335,-0.5842191,0.9051429,-0.011425051,-1.422081,-0.0030293127,-0.88136566,0.6594919,2.496372,1.2281704,1.1556286,-0.50848097,-1.3389531,-0.69300073,0.9285828,0.11269072,-1.8253831,-0.5500202,-0.0420542,-0.14265397,-1.0250993,-1.1814191,1.1955472,-0.59330404,-0.91819364,1.7526748,1.1850474,-0.4036105,0.9780497,0.5266578,-0.6007779,1.24072,0.9107929,0.64194304,0.33739412,-0.035409402,1.6654799,-1.14726,2.1222,-0.3881474,-1.3383656,0.1900329,-0.5840802,0.155595,0.43957573,-3.2394717,-0.9489267,-0.85030097,0.36900166,-0.6368532,-0.28206873,-0.15452756,1.2236656,-0.9913733,-0.6994232,1.7885975,-1.793777,0.6125252,-0.77948886,-0.8527322,0.59628785,-0.48134437,0.7668459,0.21728171,-0.65225327,1.8300072,1.5519162,1.3328506,0.5393773,0.29672253,-1.1063946,0.20874283,2.6422744,0.2508775,-1.3147727,-1.2254617,-1.1725926,1.8591168,-0.21274585,1.6651871,-0.83507884,0.87599945,-1.0372295,-0.60619116,-1.0087283,0.23354991,-0.27814052,-1.7041519,-1.6626812,-0.86835724,0.059987612,-0.9879953,-0.8315352,-1.1604593,-1.2765985,-0.1305002,-0.6673784,1.7242742,-0.11357354,-0.18358074,-0.059214126,0.06535965,0.54020953,-0.28503457,1.1534414,0.5317475,0.43511486,-0.16941278,0.36163777,-0.980475,1.6257523,-0.17350127,0.83294684,-0.41383734,0.770428,-1.0311152,-1.4742801,1.556739,-0.9099584,-0.16689652,-1.5606554,-0.61831456,-0.1613007,-0.9725587,-0.32703716,0.22732846,1.1034899,-0.6479919,0.27499777,0.32730237,-1.7365077,0.38023964,-1.0481937,-0.02920721,0.051247947,0.34041536,-0.7515524,0.18536186,-0.43598247,-1.7213112,2.2198641,-1.3464242,-0.6433143,0.49312502,0.272837,-1.0867766,-1.1953427,-0.5484135,1.9050328,2.1255758,2.0436633,-0.592509,2.1786642,-0.58124566,0.39476028,0.09092973,-1.5864499,0.9486384,1.4269942,0.38514325,0.15439165,-0.116492786,-1.2148196,1.7607416,0.4382999,-0.42286414,0.60247767,1.2088358,-0.3320451,-0.43712676,1.7211175,-0.6136483,0.39815447,-0.5140352,-0.9689598,-1.0590047,-0.8382902,-1.8667473,0.41779882,-0.14857078,0.4510886,0.28028798,-0.5254226,-0.7208775,-0.8890725,0.5868773,-1.0547023,0.11779622,1.0505449,1.3275203,0.016419798,-1.0481186,-0.5653524,-0.4438917,0.13895082,-0.87402135,0.5397829,-1.8958288,0.08897072,-1.6054066,0.45425144,-1.1008606,1.3185978,-1.6229109,-0.6069468,1.4614365,-0.60892296,0.31644285,1.1046579,0.98333347,0.7007305,0.1039392,0.059630387,-0.63413984,-0.68213,-0.48460948,0.09030568,-0.5027341,1.2067938,-0.48114198,-0.2901696,-1.7843504,0.72215575,-1.125613,2.9514346,1.2217139,-0.25730455,0.13070565,0.24304843,-1.4367211,0.30565888,1.857574,-0.060102798,1.9472121,-1.1977032,-0.39056563,0.3003261,1.1652972,0.20598952,-0.023932608,1.6207931,-2.5496252,-0.6904529,0.3268242,0.87670326,-1.0162784,-0.9161035,2.557609,0.4584486,0.750769,0.082210824,1.0973281,0.2284173,0.104783505,-1.4197426,-0.9111679,-0.8219762,1.2990832,-0.39022866,0.22878231,0.5373671,0.59734666,0.9007257,-0.4814614,-0.40610886,-1.511185,-2.113698,0.08737609,-0.82623214,-0.3440799,-0.36341327,0.77883273,0.6627498,-0.33999366,-0.3899029,-0.12306183,-0.20174482,-1.1820701,1.0748339,0.26136696,2.0251913,-0.53797174,0.7575006,0.33597443,-1.6511773,0.10115341,0.30282447,0.725799,0.80280954,-1.4202868,0.444365,-2.3750167,0.20507723,-0.14985012,0.47762948,-2.0525212,0.799937,-2.0977654,-1.4103428,-0.17609395,-0.19836783,-0.33198646,0.31428385,-2.5273898,-0.59207886,0.22876191,-0.24049777,-0.1779611,-0.5328859,-0.82238233,0.12314748,0.037163462,0.42818287,0.08538571,1.0650488,0.6637143,0.28030157,0.12884375,-0.5456756,1.5128316,1.3427255,0.4155461,-0.006310048,-0.74196887,-0.24113947,-0.1206381,-1.5787407,-0.16693574,-1.4997022,1.1354355,-0.17183474,-0.42942077,0.90084386,-0.10636736,-1.5369827,0.12937556,1.1939172,-0.17939015,-0.4664328,-1.5748087,1.1234618,0.32243443,-1.7479383,-0.085362665,-1.5283467,0.8811054,0.6067123,0.5216748,1.2439681,-0.4822393,-2.2153106,-1.5906596,-0.23431389,-0.18489851,-0.807431,0.8131114,-0.51198715,0.2636039,-1.3649192,2.911677,-0.28993335,-2.6267169,0.43781012,0.84103674,-0.64017856,0.010899237,-0.13499783,-0.24986435,-1.2734247,0.6400712,0.6790366,0.19076537,-0.4587159,-0.29818156,-0.3975711,-0.42909196,0.59552926,-0.49332598,-0.29523334,0.7908348,-0.20988876,-0.73145074,-0.55901676,-0.12464044,-0.5858301,0.6006915,1.4392867,-0.15375629,1.2979438,0.65502435,-1.101811,-0.9579232,1.4570285,1.585622,0.8246963,-0.9849428,0.36291865,-0.82817584,0.30727923,-0.37062624,1.7589967,-1.5697504,1.9608694,-0.6092813,-1.6744981,-0.80936486,0.67021906,2.0525792,0.17974192,-0.14303589,-0.5935476,1.3372151,-0.43343413,0.09514065,1.8226774,0.17520145,-0.12741274,-1.1887234,-1.4036276,1.4694251,0.0245668,0.45249906,1.2872274,-0.715991,1.46971,-2.025787,0.9223134,-0.88277304,-1.0770031,-1.7425236,-1.9025886,-0.09475279,0.48038116,-0.3185479,-0.53973424,-0.5249562,-0.19767159,-0.5923983,1.4719613,-1.8368338,0.7518887,-0.43232718,0.43600422,-0.22135986,1.9598956,-1.3970976,1.5376414,-0.90660566,-0.5937028,1.0822569,-1.1309005,-0.3668239,0.63794625,-0.7842667,1.3085085,-0.10262584,0.009789107,-0.7686661,-0.4299706,1.620143,0.67269415,-0.012307482,-0.49333823,0.29167512,0.77567786,2.229379,0.50463486,1.0264273,0.937739,-1.4231193,-0.03013444,-0.42065936,0.13911176,2.1063116,-1.2132676,-0.16191955,-1.0129999,-1.4637804,0.56300855,-0.25826186,-1.4650713,-0.5388008,-1.4514257,-0.66532713,-1.1303858,-2.7434692,-0.5591551,-1.2870426,0.3858878,0.7710739,-0.8682024,2.44313,0.8328288,-1.1107938,1.0504812,-1.557028,-0.3519932,0.06755312,0.45710018,-1.2761347
1,10,1.322785,1.3405176,0.6365107,0.47679016,-0.52029264,0.42613316,0.5850544,-0.38875154,1.6788195,-1.7830473,-1.9980184,0.43968377,-1.8304356,-0.22569893,-0.20196994,-0.0021072351,0.054643072,1.1155818,1.8941439,-0.2718666,0.093835995,0.6489748,-0.987578,-0.8275886,0.10392685,-0.15841937,0.39820927,-0.74490917,-0.029514294,1.5445186,0.77894926,0.29882187,-0.29942122,0.16521621,-1.0536238,0.23275559,-0.9424196,0.0465564,-0.64650726,1.1385907,0.9723742,-0.83016837,-0.62443256,0.34941527,-0.08681372,-0.5638472,0.24403161,-0.62009704,0.8730838,-0.42635998,0.2903402,-0.48917288,0.83798546,0.7423948,-1.5232123,1.5043273,0.19196938,0.3034348,-0.15904312,0.08463968,-0.10753632,1.4452055,0.8928064,2.373817,-1.353304,1.5321412,-2.0908456,-1.2525508,-1.5017489,1.2425492,-1.4464649,0.2679532,-0.27767873,0.4729801,0.7191725,0.10921965,-1.0976195,0.42341936,0.14932846,-0.45200774,-1.5995632,-0.5818101,-1.1176827,-0.31336582,0.25469616,0.5401187,-2.1353183,-1.1155274,-1.5761591,1.0264155,0.81604844,0.66550815,-1.2107418,-1.0550532,-1.0775554,-0.3156457,0.10043108,-0.54923207,0.67496556,-0.491274,-0.41579762,-0.6017584,-0.18245336,0.19874471,0.34875712,-1.640143,-0.11952797,0.50002193,-0.20918272,0.6265462,-0.48962194,-0.605987,0.40729442,-0.20739472,1.0927095,-0.12052506,0.3716749,0.43202725,-0.6706486,-1.8161855,0.642625,1.3309977,1.5059115,-0.39236858,-0.1762894,1.211166,-0.45966148,0.34972692,1.8118093,0.12665859,-0.2611484,-0.73897153,0.81803143,-0.90255266,0.056755774,-1.9072095,0.79379505,1.7439401,0.92636776,-0.9129676,-0.16110133,-1.1095717,6.5679033E-4,1.9890201,-0.2361245,-0.29963917,0.21970442,0.27010688,2.1142366,0.62479025,-1.1781763,0.585267,0.8452431,-1.6529517,-0.3209992,2.1311967,0.63396764,0.86593735,-0.54910207,0.6559873,0.15648173,-2.0878239,-0.5861562,0.89771014,1.1436745,-0.51803684,0.4651938,1.0405835,0.67222816,1.320774,-0.89957273,-1.1199795,0.02738414,0.66449624,-1.0260721,0.6793979,-1.4757576,0.30566502,1.4659183,-0.7619727,-0.22701064,0.21393403,-0.71279675,0.0068150903,1.2180207,-1.6652945,0.66309285,0.20184587,-0.42921802,-3.038452,1.0836214,-0.36222023,-0.3536282,-0.44727427,-1.4014146,1.6718806,0.77962005,-0.0044607148,1.1017128,-0.3884802,-0.77338034,-0.33398917,0.24089906,0.22916976,2.0965214,1.3892714,-0.99017805,-2.2469661,-0.066865906,0.9809263,-0.4527571,0.96256286,0.41335815,0.0159693,1.2428628,-0.007978908,1.7794582,-1.0163207,-0.90027606,-0.619321,1.1710243,-0.08512438,1.5695001,-0.3439851,-0.41286907,-0.93334025,-1.068336,0.2022217,0.6021811,-1.0616239,1.9956828,0.32588142,0.2865401,1.3866224,0.23577881,0.6981768,0.10853943,0.294731,-0.42982107,-0.19939028,-0.07884182,0.40545908,-1.0406953,-0.86725295,-0.75043225,0.077010415,-0.08132898,-0.07552038,1.1038829,-0.51820135,0.66074556,-0.9765911,-2.3860004,-1.9157387,-0.9508482,0.26113603,0.43509978,-0.044025585,0.24557401,-1.2105117,-0.40635443,-0.08817992,-0.3072265,0.011001258,0.17753172,-0.80302817,2.1000674,-0.2447299,0.29829124,-1.5255916,-0.6008593,0.561952,-0.36114922,0.5781921,0.33214784,0.60388625,-0.43489534,1.163911,0.84659547,-1.0186148,0.04604833,1.3401529,-2.064374,0.34237254,-1.7316154,1.050374,-0.10330264,0.99862075,1.1602093,0.5374286,0.57871044,-0.065309964,0.36828792,-0.8419168,-1.0520574,-0.2781287,-0.8937546,0.8167835,0.7225677,-0.010147555,0.959253,0.62063307,-0.19383447,0.7359823,0.3155295,0.7143527,-1.5032369,-0.34915566,0.736895,0.008115872,-2.3640382,-1.8759612,0.8340579,-0.27276587,0.701493,-0.3641627,-0.11407288,0.30032173,-1.0350428,2.2096045,1.2352247,-1.1540933,0.72122353,0.009535674,0.67534614,0.9084902,-1.6151894,-0.69629866,0.49810836,-0.23475978,-0.35324347,-0.022914598,-1.6795006,0.17746177,0.6562377,1.8496382,0.13826442,-0.5481673,-1.3209254,0.4556856,-0.18999977,0.27034783,1.9082052,-0.6249925,1.2099581,-0.49157286,-1.1396432,-0.44277388,0.09732947,-0.74319434,1.137316,-0.73516566,-2.4431186,-0.24542087,-0.8683195,2.128105,-1.8833866,0.37061152,0.23908472,0.9791563,1.1404495,-0.49736637,-0.17801185,1.1086266,0.5132123,-0.023961347,-0.26404917,-0.15047537,-0.41140118,0.44589904,-0.47795963,-2.9573584,0.52951455,-0.85910517,0.7627683,0.7473168,-1.8280172,1.3686817,-1.4383302,0.49798343,0.64079887,0.99944717,-0.10166883,-1.4093095,2.0078099,-1.928795,0.85648453,0.62234515,0.869603,0.6791815,-1.5456764,0.6260726,-0.5340697,-1.1943007,-0.3627955,-0.5478179,0.4391574,1.6158677,1.6489776,1.9837313,0.8055801,-0.6515088,0.6492208,-1.9225444,1.6377007,-0.20165822,0.19297951,0.56331456,-0.69278437,1.2477603,0.5515583,-0.05153055,-0.014266859,-0.8066135,-0.30983484,0.49122635,0.14942382,0.19322412,-1.1062266,-0.03454166,2.670769,-0.5710858,-1.7098294,-0.17643799,-0.33161858,-0.94246995,-0.4408536,0.65168005,0.9178481,0.5134971,0.27767974,-0.8596734,0.038812157,0.36888328,-0.20077364,-0.13241993,-0.004388715,-0.7769455,-1.6223732,0.2537908,-1.4490161,0.83571094,-1.2484354,-1.4171937,0.017075581,-1.3962393,0.41045862,1.7767689,0.36233303,-0.20319417,-0.106437564,0.88347036,-1.204069,0.19572589,-1.3848286,-1.3672677,1.2519172,-0.7126428,-0.016488701,-1.6260778,1.2272457,0.95167035,0.2628734,1.051337,0.2573295,1.8069723,-0.33273095,-0.5946863,-0.13570552,1.142181,0.9417448,-0.043462366,-0.21236935,-0.17700122,-0.9754891,-0.061411373,-0.98548895,-1.0620847,-0.11404844,0.29459438,-1.2078171,-0.067718305,-0.24783292,0.88062423,0.39546683,1.8691412,0.47048396,1.6135455,0.4512574,0.089778386,-0.5656251,0.43416315,1.4134954,-1.4055108,-0.58925426,0.55540144,0.95022905,-1.4823604,0.6501101,0.7416134,-1.4819676,0.24853835,0.5881512,0.6474248,-0.7974812,0.34812698,0.97236013,0.77902865,-0.95822877,1.2398992,-0.078700006,-0.17891863,-0.3952054,0.3204838,1.0841091,0.38479593,-0.076998115,-0.7751154,-0.6321827,0.4288921,0.48192638,-0.47192472,0.86892074,-0.7492054,0.6161834,-1.4176798,0.19623406,1.271697,1.1128376,0.010493518,-2.0094903,0.52567303,-0.44802767,0.018621298,0.17971337,-2.143529,0.23726137,1.362158,1.4194852,0.96407497,0.07653072,0.52512676,0.11228637,-1.24421,1.1693714,0.47940537,0.40394667,0.9568278,0.2901192,-0.09791662,0.045638442,-0.18446207,-0.74848735,0.5380183,-2.0431268,-1.0654999,0.1858331,-1.7039664,-0.44750538,1.1498462,1.714788,-2.1293073,0.8985585,1.6608933,-0.18620248,-0.9122876,-2.1695285,1.2535769,0.2690775,-0.23077558,-0.5695349,1.1569121,-0.10676217,0.45950425,-0.15449855,-0.8696525,0.9653138,0.28577468,-1.6750153,0.050993867,-0.11551312,0.7178687,-0.57167375,0.0022687607,-0.053552065,-1.6485325,-0.42031258,0.9992026,-0.5653706,-0.90983826,0.2621728,0.4352598,1.6586986,0.184468,-0.6658018,1.3247206,-1.3199247,-2.0920298,0.7005829,0.20507728,-0.9222442,0.7037603,-1.1196924,-0.090303645,0.8679474,-0.9655263,0.17106584,1.0119567,0.6000642,-2.3746796,0.97592175,-0.15113546,0.71656644,1.4714199,1.0047543,-1.1679187,0.8878761,-1.092761,-1.8291589,0.71988547,-1.7735776,-0.31135222,-0.35935697,1.4890878,0.01857634,-0.547038,0.98313344,-0.42610964,-0.5628902,-0.84113157,1.3469992,1.4511771,0.59537685,0.17804687,0.10095528,-1.3767406,-0.04129119,-2.0824223,-0.46198043,-1.9173723,1.1219692,0.67773944,-0.5846758,0.68391806,0.68972915,-0.36426252,-0.035448443,-0.7430624,0.55892175,1.6168858,-0.63509095,-0.19464113,1.1615247,0.5977867,1.7839177,2.0617259,-0.0685748,0.5378794,0.18636464,0.8109162,0.60457844,0.089269646,1.141876,1.7164983,0.9621408,1.007861,0.2059044,0.4646137,1.5654658,0.59764713,0.10455618,-0.39504772,0.7537453,2.9315193,-0.5908597,-0.9277886,-0.57586426,1.504478,-0.21259,-0.68188757,0.11518021,0.36203516,-1.05059,-1.2035905,2.1188767,0.734786,-1.0460778,0.03787252,-0.4848931,0.14403062,-0.6966458,-0.49785867,-0.22600129,-0.36279994,1.7749394,0.88923943,-1.6451275,-0.66149276,-0.14268315,0.17426844,-0.5022587,0.07507348,-2.3222635,1.513375,0.36525285,-0.04622565,0.17426029,0.013638108,1.1348759,-1.8633459,0.43698993,-0.40286162,-1.8444515,0.90623444,0.3942219,-0.33565027,-0.44845268,-0.67299885,0.21749128,0.2389449,0.78777057,-0.96062154,0.236332,2.0414567,-1.8352132,-0.5197665,-0.35840183,0.020615056,0.32774097,-0.47892514,-0.4193628,-2.0729125,-0.9041286,-0.45538455,-0.8583931,0.31863433,-0.3592476,-1.5792964,-0.16244093,1.5798714,-1.1193327,-2.1160815,-2.451885,2.1354883,1.4698066,0.2663507,-1.2492782,1.6714699,-0.0022406238,-1.7207128,1.211991,0.38489747,-0.17304526,-1.3477236,-2.1976886,-0.020571858,0.9627758,0.662208,0.22623864,1.2851567,-0.17936936,-1.8719813,0.63074315,-0.94139934,0.097975224,-1.1829573,0.6473964,0.16229208,-0.6327672,-0.4796222,0.1360202,-1.7442586,1.3123392,-0.06721477,0.96729606,1.0435059,-0.98400223,-0.37360018,0.9299879,1.1456928,1.8786486,0.5053596,0.16761729,-1.8034873
